{
  "architecture": [
    11,
    32,
    32,
    3
  ],
  "max_velocity": 300.0,
  "layers": [
    {
      "weights": [
        [
          0.13785484433174133,
          -0.14330391585826874,
          -0.11916519701480865,
          -0.22642813622951508,
          -0.29012006521224976,
          -0.08221199363470078,
          0.1731763482093811,
          -0.18550574779510498,
          -0.2544429302215576,
          -0.02769153006374836,
          0.10296750068664551
        ],
        [
          0.07878907769918442,
          0.17266783118247986,
          -0.14378751814365387,
          -0.21168401837348938,
          0.2696954607963562,
          -0.0916488915681839,
          -0.2551927864551544,
          0.2905121147632599,
          -0.0027909702621400356,
          0.20490221679210663,
          -0.11587749421596527
        ],
        [
          0.15058495104312897,
          0.11971303820610046,
          -0.14393649995326996,
          0.08914927393198013,
          -0.25122928619384766,
          0.18746331334114075,
          0.11455748975276947,
          -0.19077110290527344,
          -0.07681986689567566,
          0.19590893387794495,
          0.0377190038561821
        ],
        [
          -0.19508638978004456,
          0.22438937425613403,
          -0.017332913354039192,
          0.19614170491695404,
          -0.1395958960056305,
          -0.11156386882066727,
          -0.1122518926858902,
          -0.12805213034152985,
          0.10913725942373276,
          0.27280327677726746,
          0.05387924239039421
        ],
        [
          0.04948420822620392,
          0.3003375828266144,
          0.0077064926736056805,
          -0.1764751523733139,
          0.28819286823272705,
          0.1986130028963089,
          -0.19199450314044952,
          0.13147583603858948,
          -0.2858234941959381,
          -0.1429618000984192,
          0.24194125831127167
        ],
        [
          -0.031253404915332794,
          -0.2978048622608185,
          -0.199818953871727,
          -0.11112494021654129,
          0.01071164757013321,
          0.20586833357810974,
          -0.079862080514431,
          -0.04732116311788559,
          0.2920798659324646,
          0.04998338595032692,
          0.12759722769260406
        ],
        [
          -0.2917534410953522,
          -0.055735014379024506,
          0.15808695554733276,
          0.1960485428571701,
          0.0150061110034585,
          0.19651669263839722,
          -0.1408459097146988,
          -0.16348828375339508,
          0.04121057316660881,
          -0.08062011748552322,
          -0.21816110610961914
        ],
        [
          -0.03469680994749069,
          -0.2018924355506897,
          -0.18343088030815125,
          -0.1600055992603302,
          -0.2344517856836319,
          0.13217417895793915,
          -0.2520434856414795,
          -0.014787361957132816,
          0.03405490517616272,
          0.22204744815826416,
          0.2468033730983734
        ],
        [
          0.019188793376088142,
          0.19445104897022247,
          0.1839502900838852,
          -0.20232486724853516,
          0.052035585045814514,
          0.14038290083408356,
          -0.013080036267638206,
          -0.17847886681556702,
          -0.027575146406888962,
          0.0027846083976328373,
          -0.25416114926338196
        ],
        [
          0.1978345513343811,
          -0.20822773873806,
          0.09271973371505737,
          -0.03615260869264603,
          0.12692812085151672,
          0.19007094204425812,
          0.20254018902778625,
          -0.2533220946788788,
          -0.07811855524778366,
          0.18154458701610565,
          -0.06980200856924057
        ],
        [
          0.2569926083087921,
          -0.17776964604854584,
          -0.05320452153682709,
          -0.057607926428318024,
          0.07104290276765823,
          0.2665753960609436,
          0.26404717564582825,
          -0.22931575775146484,
          -0.16350090503692627,
          0.16739387810230255,
          -0.058282651007175446
        ],
        [
          0.16859936714172363,
          0.12457720190286636,
          -0.02554275281727314,
          -0.014106279239058495,
          -0.24133823812007904,
          -0.12257154285907745,
          -0.20625023543834686,
          -0.25802263617515564,
          -0.03969349339604378,
          -0.07322970777750015,
          -0.05528378486633301
        ],
        [
          0.29028430581092834,
          -0.107782743871212,
          -0.10016071796417236,
          0.26318123936653137,
          0.1732873022556305,
          0.12255892902612686,
          0.22366361320018768,
          0.1581348329782486,
          -0.1288381665945053,
          0.15602581202983856,
          0.2014673352241516
        ],
        [
          0.19673605263233185,
          -0.020880339667201042,
          -0.07829172909259796,
          0.24402886629104614,
          0.017181918025016785,
          0.018070140853524208,
          0.14621475338935852,
          -0.20078308880329132,
          -0.23611658811569214,
          -0.18861593306064606,
          0.2760079503059387
        ],
        [
          -0.05349486693739891,
          0.0903119146823883,
          0.17956049740314484,
          0.05578242242336273,
          0.14708895981311798,
          -0.0707237645983696,
          -0.030956875532865524,
          -0.12908433377742767,
          -0.05530959367752075,
          0.15212398767471313,
          0.18683575093746185
        ],
        [
          -0.24661290645599365,
          -0.04790768027305603,
          0.013120544143021107,
          0.2384941130876541,
          0.15729862451553345,
          0.09062289446592331,
          0.12009798735380173,
          -0.19379261136054993,
          0.292485773563385,
          -0.03457650914788246,
          -0.08185835182666779
        ],
        [
          0.009967556223273277,
          -0.2275078296661377,
          -0.22494056820869446,
          -0.10231197625398636,
          0.04904502257704735,
          -0.08366423100233078,
          -0.24759602546691895,
          -0.15662185847759247,
          0.13688910007476807,
          0.1890134960412979,
          -0.014858708716928959
        ],
        [
          -0.11431961506605148,
          0.05954715982079506,
          0.20164920389652252,
          -0.2660585343837738,
          0.013757596723735332,
          -0.1029912605881691,
          0.12723499536514282,
          -0.015394474379718304,
          -0.07329770922660828,
          -0.00896273460239172,
          0.16021934151649475
        ],
        [
          -0.24527931213378906,
          -0.2362256497144699,
          0.14171484112739563,
          -0.22708046436309814,
          0.04947669804096222,
          -0.1133677065372467,
          -0.1698438674211502,
          0.03509628027677536,
          -0.06799278408288956,
          -0.2077321857213974,
          0.002465650672093034
        ],
        [
          -0.1627747118473053,
          -0.06805025786161423,
          0.015629326924681664,
          0.2823912501335144,
          -0.13761837780475616,
          -0.2523781955242157,
          0.04122372716665268,
          0.25126218795776367,
          0.12606483697891235,
          -0.21741630136966705,
          -0.2876065969467163
        ],
        [
          0.10253608226776123,
          -0.07883885502815247,
          0.15073558688163757,
          -0.1142386719584465,
          -0.03378533571958542,
          0.24005982279777527,
          0.24435579776763916,
          0.174618199467659,
          0.27445536851882935,
          0.010145905427634716,
          0.03711027279496193
        ],
        [
          0.23187673091888428,
          0.2831234335899353,
          0.03211495652794838,
          0.035835232585668564,
          -0.2611454725265503,
          0.14295756816864014,
          0.10691709816455841,
          -0.09812850505113602,
          -0.2632140517234802,
          0.29497551918029785,
          -0.13217894732952118
        ],
        [
          -0.074994757771492,
          -0.12394902110099792,
          -0.08712690323591232,
          0.2504960000514984,
          0.26921114325523376,
          0.15920989215373993,
          0.08270322531461716,
          0.08874060213565826,
          0.12831468880176544,
          -0.07302652299404144,
          -0.12664686143398285
        ],
        [
          -0.27213117480278015,
          0.12437372654676437,
          -0.028096642345190048,
          0.23744669556617737,
          -0.27270856499671936,
          0.1437559276819229,
          -0.23207725584506989,
          -0.158940389752388,
          -0.007309035398066044,
          -0.0915343388915062,
          0.192223459482193
        ],
        [
          -0.2561180889606476,
          -0.10423298180103302,
          0.28222665190696716,
          0.1761830896139145,
          0.0925629511475563,
          0.057118527591228485,
          0.2892512083053589,
          -0.1738532930612564,
          0.14247804880142212,
          0.28938567638397217,
          0.22748899459838867
        ],
        [
          0.19125036895275116,
          -0.15425945818424225,
          0.2457752525806427,
          -0.21963584423065186,
          0.16600364446640015,
          -0.2566393315792084,
          0.24352476000785828,
          -0.2532276213169098,
          0.2391446828842163,
          0.11157921701669693,
          -0.20158816874027252
        ],
        [
          0.277740478515625,
          0.024144211784005165,
          -0.16147568821907043,
          0.23635801672935486,
          -0.016029981896281242,
          0.10150106996297836,
          0.13980461657047272,
          -0.18517957627773285,
          0.1309913992881775,
          -0.17078998684883118,
          0.04333721101284027
        ],
        [
          0.10627975314855576,
          -0.08319837599992752,
          0.134574294090271,
          -0.23006168007850647,
          -0.0036614728160202503,
          0.10328976809978485,
          -0.2848120331764221,
          0.06076720729470253,
          -0.26209601759910583,
          0.12712444365024567,
          -0.15316835045814514
        ],
        [
          0.100925013422966,
          0.18743714690208435,
          -0.06095960736274719,
          -0.18474900722503662,
          -0.16850872337818146,
          0.04888881370425224,
          -0.05384322628378868,
          -0.24972477555274963,
          0.21201033890247345,
          -0.24208711087703705,
          -0.06205054745078087
        ],
        [
          0.07570818811655045,
          -0.028164539486169815,
          0.26715001463890076,
          0.1940382570028305,
          -0.12205041199922562,
          -0.2789232134819031,
          -0.25919097661972046,
          0.141449972987175,
          0.06510041654109955,
          0.2035467028617859,
          -0.10615374147891998
        ],
        [
          -0.272167831659317,
          -0.1305769383907318,
          -0.10126222670078278,
          0.14612317085266113,
          0.24915137887001038,
          0.023799769580364227,
          -0.08904877305030823,
          0.1450023502111435,
          0.2854174077510834,
          -0.045783307403326035,
          -0.25411954522132874
        ],
        [
          -0.0764487236738205,
          -0.2143934667110443,
          -0.03504721820354462,
          0.23542487621307373,
          0.1546822190284729,
          -0.26713594794273376,
          -0.22856250405311584,
          0.06531240791082382,
          -0.01264049019664526,
          0.1474631130695343,
          -0.1453893929719925
        ]
      ],
      "biases": [
        -0.176761656999588,
        0.17816954851150513,
        0.08663789927959442,
        -0.08536642044782639,
        -0.13904696702957153,
        -0.010572763159871101,
        0.13021236658096313,
        0.28355884552001953,
        -0.1115177571773529,
        0.24703340232372284,
        0.013071086257696152,
        0.11443988233804703,
        -0.16114473342895508,
        -0.028471922501921654,
        0.2622690200805664,
        0.200107142329216,
        0.19504594802856445,
        -0.2381516546010971,
        -0.0938870906829834,
        0.23913177847862244,
        0.0011441720416769385,
        0.006052038632333279,
        -0.13665637373924255,
        -0.11801458895206451,
        0.2457360476255417,
        0.06635583192110062,
        -0.02515934780240059,
        0.15919849276542664,
        0.019048579037189484,
        -0.23939570784568787,
        -0.16957633197307587,
        0.1443013995885849
      ]
    },
    {
      "weights": [
        [
          0.1500997394323349,
          0.0047799162566661835,
          -0.11702927947044373,
          -0.15678812563419342,
          0.09149222820997238,
          0.06298675388097763,
          -0.057552531361579895,
          -0.04526712745428085,
          -0.06968319416046143,
          -0.17314894497394562,
          -0.04709724709391594,
          -0.009082983247935772,
          -0.13671088218688965,
          0.17221103608608246,
          0.1735389679670334,
          -0.00801700446754694,
          -0.05405054986476898,
          -0.17014029622077942,
          0.02550274133682251,
          0.0109340725466609,
          0.09062927216291428,
          0.11653666943311691,
          -0.016290094703435898,
          -0.03835040703415871,
          0.08199694752693176,
          -0.12174146622419357,
          0.01686362735927105,
          0.03337147459387779,
          0.07552436739206314,
          -0.03762219473719597,
          -0.10035853832960129,
          0.0990934744477272
        ],
        [
          -0.10944218933582306,
          -0.06570044159889221,
          0.010214477777481079,
          0.15818654000759125,
          0.16648738086223602,
          -0.13146790862083435,
          0.04289870709180832,
          0.016261223703622818,
          -0.17424538731575012,
          -0.11682669818401337,
          0.009470059536397457,
          -0.17032814025878906,
          0.1697361022233963,
          0.08459506928920746,
          -0.0958985984325409,
          -0.1430434286594391,
          0.0008924173307605088,
          -0.12870022654533386,
          0.11998177319765091,
          -0.017620205879211426,
          0.047147780656814575,
          0.1545535922050476,
          0.028587110340595245,
          -0.09933973848819733,
          -0.03121406026184559,
          -0.0539332777261734,
          -0.035634592175483704,
          -0.12750042974948883,
          0.07107062637805939,
          -0.024710001423954964,
          -0.022986046969890594,
          0.1680375039577484
        ],
        [
          0.04608093947172165,
          0.17492304742336273,
          -0.08784947544336319,
          -0.0561988390982151,
          -0.013169520534574986,
          0.11479680240154266,
          0.04002705216407776,
          0.02992950938642025,
          0.12144070863723755,
          -0.011869311332702637,
          -0.010126623325049877,
          0.025163795799016953,
          0.09214333444833755,
          -0.052485931664705276,
          -0.11339029669761658,
          -0.030827531591057777,
          -0.02519926242530346,
          0.03749644756317139,
          -0.07625328004360199,
          0.07779499143362045,
          -0.0508120097219944,
          0.13148903846740723,
          -0.130365788936615,
          0.12619709968566895,
          0.047021131962537766,
          -0.0702592134475708,
          0.1304953396320343,
          -0.14448487758636475,
          -0.12678654491901398,
          0.09060034155845642,
          0.04660016670823097,
          -0.005162019282579422
        ],
        [
          0.019750012084841728,
          -0.1269274652004242,
          -0.16641202569007874,
          -0.15757189691066742,
          -0.1539856344461441,
          -0.043689507991075516,
          0.16599246859550476,
          0.174192413687706,
          0.0552850104868412,
          -0.0019968964625149965,
          0.011863178573548794,
          0.053544219583272934,
          -0.08656829595565796,
          -0.05617251619696617,
          -0.0646100640296936,
          0.018184615299105644,
          -0.03071681223809719,
          0.11389397829771042,
          0.16939087212085724,
          -0.14290213584899902,
          -0.08935414254665375,
          0.07404632121324539,
          0.11186327785253525,
          0.016846580430865288,
          0.026498714461922646,
          0.16174951195716858,
          0.13984164595603943,
          0.07909340411424637,
          0.026877887547016144,
          0.061473410576581955,
          -0.11246435344219208,
          -0.1665259748697281
        ],
        [
          -0.1013478934764862,
          -0.01352762058377266,
          -0.0003162067150697112,
          -0.0057477764785289764,
          0.16087068617343903,
          0.15015244483947754,
          0.06659553945064545,
          0.008513452485203743,
          0.12360721826553345,
          -0.04310134798288345,
          -0.13218232989311218,
          0.15941624343395233,
          -0.015582026913762093,
          0.15529251098632812,
          -0.05209514871239662,
          -0.1251540333032608,
          -0.13047462701797485,
          0.058876048773527145,
          0.09165230393409729,
          -0.052646491676568985,
          -0.11243634670972824,
          -0.0610998198390007,
          0.11442764103412628,
          -0.1417022943496704,
          0.02188519388437271,
          -0.08149097114801407,
          0.03672929108142853,
          -0.02765115536749363,
          0.05653565376996994,
          -0.04375991225242615,
          -0.11884873360395432,
          0.07419770956039429
        ],
        [
          -0.1184953972697258,
          -0.1326008141040802,
          0.1679488867521286,
          0.12774111330509186,
          -0.15962471067905426,
          0.12947994470596313,
          0.10798165947198868,
          0.08895640075206757,
          0.022344255819916725,
          -0.06307020783424377,
          0.12619410455226898,
          -0.0005409126169979572,
          0.10325035452842712,
          -0.05083329230546951,
          0.1224811002612114,
          0.09129180014133453,
          0.16470037400722504,
          -0.16977481544017792,
          -0.14955347776412964,
          0.08061722666025162,
          0.03371128439903259,
          -0.01105288416147232,
          -0.0183921679854393,
          -0.13517986238002777,
          0.11233671009540558,
          0.018869755789637566,
          -0.06858859956264496,
          -0.12195481359958649,
          -0.13541099429130554,
          -0.14793606102466583,
          0.13918736577033997,
          0.04340455308556557
        ],
        [
          -0.06063671037554741,
          0.028305696323513985,
          -0.0739135816693306,
          0.017160404473543167,
          0.07520245015621185,
          -0.09539230912923813,
          -0.11635151505470276,
          -0.06646359711885452,
          0.09029234945774078,
          -0.14811956882476807,
          0.016792232170701027,
          0.14139778912067413,
          0.10309780389070511,
          0.11873376369476318,
          0.1491667628288269,
          0.06203782185912132,
          -0.15123781561851501,
          0.1588423252105713,
          0.11647456139326096,
          0.00902593694627285,
          -0.05622589588165283,
          -0.09569494426250458,
          0.06435686349868774,
          -0.12004463374614716,
          -0.11798015236854553,
          -0.17052212357521057,
          -0.05199190974235535,
          -0.09684405475854874,
          -0.046239834278821945,
          -0.07221175730228424,
          0.01257676724344492,
          -0.021606264635920525
        ],
        [
          -0.14080177247524261,
          0.06291348487138748,
          -0.11312753707170486,
          -0.08481728285551071,
          0.10752497613430023,
          0.06742344796657562,
          -0.04221927747130394,
          -0.00879887118935585,
          -0.1689847707748413,
          -0.06682024151086807,
          0.05941535905003548,
          -0.0070829675532877445,
          -0.1140911802649498,
          0.15642109513282776,
          0.01574642024934292,
          -0.011788557283580303,
          -0.17314191162586212,
          0.12603333592414856,
          0.15352921187877655,
          -0.11054953932762146,
          -0.02718663401901722,
          0.07822349667549133,
          -0.17303767800331116,
          0.0008568664779886603,
          0.02849716879427433,
          0.10072296112775803,
          -0.03451672941446304,
          0.08481579273939133,
          0.1476694941520691,
          -0.17611514031887054,
          -0.11449483782052994,
          0.17186984419822693
        ],
        [
          -0.042511165142059326,
          0.07864996045827866,
          -0.02407204546034336,
          0.06495317816734314,
          -0.09291265904903412,
          -0.05481608584523201,
          0.004547223448753357,
          0.04944901913404465,
          0.0777355432510376,
          0.027797890827059746,
          -0.03094937838613987,
          -0.08942534774541855,
          0.12791675329208374,
          0.13008441030979156,
          -0.08614929765462875,
          -0.155655175447464,
          -0.08122150599956512,
          0.1265399307012558,
          0.03253287822008133,
          -0.0012446175096556544,
          -0.019732395187020302,
          0.1724361777305603,
          -0.12509854137897491,
          0.07161592692136765,
          -0.1416236013174057,
          0.14407682418823242,
          -0.020556112751364708,
          -0.03880392760038376,
          -0.019533947110176086,
          -0.10992886126041412,
          0.01193341612815857,
          0.16616524755954742
        ],
        [
          -0.15828925371170044,
          0.1571647971868515,
          0.09910285472869873,
          0.05789050832390785,
          -0.034749824553728104,
          0.07587695121765137,
          -0.006261588539928198,
          -0.023093143478035927,
          0.07818002253770828,
          0.005738377571105957,
          -0.1327829211950302,
          0.069828562438488,
          0.03428833559155464,
          -0.13253377377986908,
          0.09891021996736526,
          0.1576199233531952,
          0.0502341128885746,
          -0.03935426101088524,
          -0.1333031952381134,
          -0.05546512454748154,
          0.1087908148765564,
          0.12165314704179764,
          0.11810362339019775,
          0.11029157787561417,
          -0.031895026564598083,
          -0.12425883114337921,
          0.09394174069166183,
          0.13975588977336884,
          0.07491252571344376,
          0.026667384430766106,
          0.10040300339460373,
          -0.1255597025156021
        ],
        [
          -0.007047163788229227,
          0.07974265515804291,
          0.13230594992637634,
          0.11715000867843628,
          0.14357814192771912,
          0.14987912774085999,
          0.10981301963329315,
          0.08051815629005432,
          0.14479763805866241,
          -0.03218596801161766,
          -0.16144737601280212,
          -0.12780846655368805,
          0.027188530191779137,
          0.17245712876319885,
          0.030773309990763664,
          0.17402690649032593,
          0.007843739353120327,
          -0.1607709676027298,
          -0.1609380692243576,
          -0.029400207102298737,
          -0.09310662001371384,
          -0.16474172472953796,
          0.1227574348449707,
          0.15476498007774353,
          0.07080624252557755,
          0.0684041678905487,
          -0.06267017126083374,
          0.0064681293442845345,
          -0.12688957154750824,
          -0.09854942560195923,
          0.031595807522535324,
          -0.1288907527923584
        ],
        [
          0.02902965247631073,
          -0.05897939205169678,
          -0.059810444712638855,
          -0.06726447492837906,
          -0.12488309293985367,
          -0.09298214316368103,
          0.1297062337398529,
          -0.056374844163656235,
          0.005137194879353046,
          0.07656179368495941,
          0.027844926342368126,
          -0.1319395750761032,
          0.07068559527397156,
          0.03687094897031784,
          0.1746765375137329,
          -0.01857624389231205,
          -0.12249898910522461,
          -0.009203270077705383,
          0.0748465433716774,
          0.12234384566545486,
          -0.07255177199840546,
          0.08478306233882904,
          0.1485055834054947,
          -0.16574718058109283,
          0.11958013474941254,
          -0.10419465601444244,
          0.06414752453565598,
          0.06162164360284805,
          -0.1350593864917755,
          -0.008605943992733955,
          -0.15191712975502014,
          -0.02016008086502552
        ],
        [
          0.17113816738128662,
          0.04743332788348198,
          0.09625528752803802,
          0.10730239748954773,
          -0.013044322840869427,
          0.07637518644332886,
          0.046626847237348557,
          -0.027921633794903755,
          0.07476667314767838,
          0.06538502126932144,
          -0.01108565367758274,
          -0.14750202000141144,
          -0.07330407202243805,
          -0.007389438338577747,
          0.14691689610481262,
          0.006786928046494722,
          0.05523097887635231,
          0.06263849884271622,
          -0.16732753813266754,
          -0.15132996439933777,
          0.08343204855918884,
          -0.15635858476161957,
          0.01638094149529934,
          -0.1303294599056244,
          -0.1574842631816864,
          0.15788525342941284,
          -0.10034921765327454,
          0.07393065094947815,
          -0.15193864703178406,
          -0.07458965480327606,
          0.09507852792739868,
          -0.0018551778048276901
        ],
        [
          -0.0819898247718811,
          0.0547466054558754,
          -0.027889981865882874,
          0.08342091739177704,
          0.16098257899284363,
          -0.0796797126531601,
          -0.04447057098150253,
          -0.07662536948919296,
          -0.04024859517812729,
          -0.11850214004516602,
          -0.01730239763855934,
          -0.07930096238851547,
          -0.007587149273604155,
          -0.10285048931837082,
          -0.015362842008471489,
          0.04018489271402359,
          0.1626000553369522,
          -0.152119979262352,
          -0.15019680559635162,
          -0.051594823598861694,
          0.0670478567481041,
          -0.06200237572193146,
          -0.09400683641433716,
          -0.1708587110042572,
          -0.10871212184429169,
          0.011534053832292557,
          -0.14491383731365204,
          -0.008054705336689949,
          -0.10871686786413193,
          -0.14936897158622742,
          -0.056338999420404434,
          0.11673292517662048
        ],
        [
          0.0412086583673954,
          -0.003883199766278267,
          0.06125028431415558,
          -0.09767462313175201,
          0.001617111382074654,
          -0.12066250294446945,
          0.01550949178636074,
          0.03890335187315941,
          0.05766582116484642,
          -0.025618940591812134,
          -0.08196482807397842,
          -0.12921787798404694,
          -0.16968633234500885,
          0.06391084939241409,
          0.10138523578643799,
          -0.14385363459587097,
          0.0002570536162238568,
          -0.14172565937042236,
          0.1371520310640335,
          0.15831321477890015,
          -0.06307857483625412,
          0.15807873010635376,
          -0.10329905897378922,
          0.03624274954199791,
          0.08845771849155426,
          -0.000799799629021436,
          -0.03373332694172859,
          0.13834001123905182,
          -0.0053211236372590065,
          0.007388637401163578,
          0.09766463190317154,
          0.09238690137863159
        ],
        [
          -0.0600336529314518,
          0.16107746958732605,
          0.1486237347126007,
          0.17007742822170258,
          -0.02513212338089943,
          0.02802160568535328,
          0.145857572555542,
          0.025491319596767426,
          0.03426473215222359,
          -0.09276814013719559,
          0.140766903758049,
          0.14520613849163055,
          -0.1332254707813263,
          -0.12093452364206314,
          -0.030523590743541718,
          -0.05655590817332268,
          0.16556601226329803,
          0.0345105342566967,
          -0.1255945861339569,
          -0.0736960619688034,
          -0.09207149595022202,
          -0.04152366518974304,
          0.16321781277656555,
          0.08880298584699631,
          -0.0015245358226820827,
          -0.04913784936070442,
          -0.005304686725139618,
          0.07036953419446945,
          0.1257605105638504,
          -0.0822295993566513,
          -0.02565617673099041,
          0.10758284479379654
        ],
        [
          0.04149826988577843,
          0.14439666271209717,
          0.15608225762844086,
          0.00527714379131794,
          -0.15570828318595886,
          0.11516695469617844,
          -0.09482952207326889,
          0.045078519731760025,
          -0.021294042468070984,
          0.009025978855788708,
          0.11615333706140518,
          0.12460076808929443,
          0.09210074692964554,
          0.0059345923364162445,
          0.03816799446940422,
          0.15642797946929932,
          -0.08773378282785416,
          0.019784340634942055,
          0.17212213575839996,
          0.059965334832668304,
          0.0736827403306961,
          0.09129828959703445,
          0.16727618873119354,
          0.17303326725959778,
          0.1332128494977951,
          -0.08438195288181305,
          -0.004260098095983267,
          -0.006094834767282009,
          -0.1442451775074005,
          0.0030524854082614183,
          -0.13498002290725708,
          -0.11629381775856018
        ],
        [
          0.05478611961007118,
          -0.030014455318450928,
          0.015487407334148884,
          0.057873647660017014,
          -0.022056352347135544,
          0.07457061111927032,
          -0.1449037343263626,
          -0.14067980647087097,
          0.14117124676704407,
          0.08838046342134476,
          0.17490999400615692,
          -0.12323950976133347,
          -0.11611728370189667,
          0.10611796379089355,
          -0.09158491343259811,
          -0.056277211755514145,
          0.03593798354268074,
          -0.15137098729610443,
          0.16327933967113495,
          -0.027304265648126602,
          0.04961423575878143,
          0.12697646021842957,
          0.04007619246840477,
          0.08914441615343094,
          -0.11815034598112106,
          -0.04410018399357796,
          -0.007959495298564434,
          0.0239823367446661,
          -0.03348248824477196,
          -0.04955967888236046,
          -0.08626110851764679,
          0.1706559807062149
        ],
        [
          0.0336851105093956,
          -0.17073272168636322,
          -0.10558164864778519,
          -0.15254516899585724,
          -0.03691604360938072,
          -0.14416025578975677,
          -0.02371923439204693,
          0.04225225746631622,
          -0.04044744372367859,
          0.03852738067507744,
          0.025164470076560974,
          0.03149927034974098,
          -0.16620904207229614,
          0.14663352072238922,
          0.055513087660074234,
          0.028124971315264702,
          -0.12017857283353806,
          0.015812864527106285,
          0.11299974471330643,
          -0.08321153372526169,
          -0.08693042397499084,
          0.07955733686685562,
          -0.054581496864557266,
          0.16888371109962463,
          0.09553249180316925,
          -0.032716237008571625,
          0.037106528878211975,
          0.042430032044649124,
          -0.013759723864495754,
          0.07252385467290878,
          0.08065572381019592,
          -0.16400499641895294
        ],
        [
          -0.1330542415380478,
          -0.11380302160978317,
          -0.1013813316822052,
          -0.09181001782417297,
          0.06492641568183899,
          0.11113458126783371,
          0.11569139361381531,
          -0.13922856748104095,
          -0.06700742244720459,
          -0.15652815997600555,
          -0.054181016981601715,
          0.09761197119951248,
          0.10991493612527847,
          0.1000111997127533,
          0.15995702147483826,
          0.05734310299158096,
          0.0960223451256752,
          -0.058168213814496994,
          -0.08605693280696869,
          0.12013594061136246,
          0.13116291165351868,
          0.015765702351927757,
          0.11110033094882965,
          0.03949884697794914,
          0.08760053664445877,
          -0.033245980739593506,
          -0.04184893146157265,
          -0.00010637864033924416,
          -0.023317869752645493,
          -0.1144789531826973,
          -0.019892826676368713,
          -0.06331133097410202
        ],
        [
          0.009855913929641247,
          -0.11966884881258011,
          -0.13342776894569397,
          -0.029986049979925156,
          -0.11304298788309097,
          -0.06423500180244446,
          0.060509469360113144,
          -0.08403609693050385,
          -0.12932227551937103,
          -0.08339735865592957,
          0.10934432595968246,
          0.07404229789972305,
          0.024081824347376823,
          0.1682189255952835,
          -0.14289966225624084,
          -0.00572573347017169,
          -0.17151282727718353,
          -0.1633383184671402,
          0.03377233073115349,
          0.11266160011291504,
          0.08379314094781876,
          -0.05620789900422096,
          0.02214319445192814,
          0.14756038784980774,
          -0.05519264563918114,
          0.13355010747909546,
          -0.11486764997243881,
          0.09996766597032547,
          0.051472511142492294,
          -0.10472665727138519,
          -0.10485687106847763,
          0.09619474411010742
        ],
        [
          0.11422409117221832,
          -0.02198864333331585,
          0.0026808767579495907,
          0.08272300660610199,
          0.08893311768770218,
          -0.005838645156472921,
          0.004939104896038771,
          -0.1080765500664711,
          -0.025019465014338493,
          0.16357706487178802,
          0.019216980785131454,
          0.09932684153318405,
          -0.1380351483821869,
          -0.11190321296453476,
          -0.04398107901215553,
          -0.06711538136005402,
          0.17595992982387543,
          -0.1731061041355133,
          -0.11830264329910278,
          -0.13190589845180511,
          -0.04002850502729416,
          0.17642036080360413,
          0.07004091888666153,
          0.09442126750946045,
          -0.006152407266199589,
          0.1423521786928177,
          0.09558245539665222,
          -0.062354154884815216,
          0.1500316709280014,
          -0.034599676728248596,
          -0.16656099259853363,
          -0.10060549527406693
        ],
        [
          0.035117197781801224,
          0.1625441014766693,
          0.11028759181499481,
          0.13819271326065063,
          0.0008660123567096889,
          0.0551360622048378,
          0.14099617302417755,
          -0.1547321230173111,
          -0.07127755135297775,
          -0.048972297459840775,
          0.014020907692611217,
          -0.13220496475696564,
          0.0015007860492914915,
          0.058405037969350815,
          -0.01565156877040863,
          0.06176011636853218,
          0.16683930158615112,
          0.16964130103588104,
          0.06397999078035355,
          -0.15899410843849182,
          0.0586451031267643,
          0.15923942625522614,
          0.1389922797679901,
          0.14847435057163239,
          -0.1212778091430664,
          -0.01906527392566204,
          -0.1704903244972229,
          -0.1616794615983963,
          -0.17469057440757751,
          -0.12986640632152557,
          0.0368688628077507,
          0.1724672019481659
        ],
        [
          0.13757909834384918,
          -0.03498706594109535,
          0.1215285211801529,
          -0.10359849035739899,
          0.15949705243110657,
          0.11442919820547104,
          -0.0071096462197601795,
          0.07074173539876938,
          -0.16403064131736755,
          -0.058869749307632446,
          0.09375102818012238,
          0.07979059964418411,
          -0.023743152618408203,
          -0.08533979952335358,
          -0.08209363371133804,
          0.15735502541065216,
          -0.16306869685649872,
          -0.1393790990114212,
          -0.0805726945400238,
          0.1014721617102623,
          -0.16432830691337585,
          -0.08173596858978271,
          0.08705366402864456,
          -0.069614477455616,
          -0.11051339656114578,
          0.0664096474647522,
          -0.1681797057390213,
          -0.0343160480260849,
          -0.13125447928905487,
          -0.03665275499224663,
          0.11438262462615967,
          -0.0016332746017724276
        ],
        [
          0.07451286911964417,
          -0.008051986806094646,
          -0.1366148144006729,
          0.08072758466005325,
          0.044773396104574203,
          -0.12931932508945465,
          0.025795409455895424,
          0.14919069409370422,
          -0.03441191092133522,
          -0.1752389669418335,
          -0.11056865006685257,
          -0.09913956373929977,
          -0.031500112265348434,
          0.1473146378993988,
          -0.17214497923851013,
          -0.13752244412899017,
          0.07846307754516602,
          0.04524940252304077,
          0.1390497386455536,
          -0.12210144102573395,
          -0.144825741648674,
          0.11272694915533066,
          -0.1039791852235794,
          -0.031209276989102364,
          -0.005946477875113487,
          -0.028119660913944244,
          0.04546544700860977,
          -0.10146763175725937,
          0.05360661819577217,
          -0.03207933530211449,
          0.030135249719023705,
          -0.1679530143737793
        ],
        [
          -0.08546736091375351,
          0.07663287222385406,
          0.11237712949514389,
          -0.07568810880184174,
          -0.03758567199110985,
          -0.03642486408352852,
          -0.028728893026709557,
          0.08139000833034515,
          0.06344541907310486,
          -0.08862586319446564,
          -0.08790943026542664,
          0.07766241580247879,
          -0.07662225514650345,
          -0.03720281273126602,
          0.16228626668453217,
          0.13040964305400848,
          -0.08722812682390213,
          0.1362685114145279,
          -0.04467960074543953,
          0.16147416830062866,
          -0.012478522956371307,
          0.056009113788604736,
          -0.060055676847696304,
          0.09291847795248032,
          -0.06926419585943222,
          -0.012029784731566906,
          -0.12868928909301758,
          0.06663612276315689,
          0.0051257312297821045,
          0.13319246470928192,
          0.009507759474217892,
          0.14810286462306976
        ],
        [
          0.03698063641786575,
          -0.1559695303440094,
          0.11792359501123428,
          -0.15887051820755005,
          0.08417041599750519,
          -0.08721604943275452,
          0.032108332961797714,
          0.16296584904193878,
          -0.15394046902656555,
          0.017673542723059654,
          -0.14898434281349182,
          -0.06123426929116249,
          0.017021721228957176,
          0.08432416617870331,
          0.08805704861879349,
          -0.0581485740840435,
          0.050964854657649994,
          0.075277179479599,
          0.1646544337272644,
          0.16506296396255493,
          0.09351348876953125,
          0.061479732394218445,
          0.14730869233608246,
          -0.10846687108278275,
          -0.14810766279697418,
          0.11457578092813492,
          0.08085601031780243,
          -0.02796274796128273,
          -0.06831709295511246,
          0.13570542633533478,
          -0.03890925273299217,
          -0.16829107701778412
        ],
        [
          0.05987511947751045,
          -0.10222357511520386,
          -0.0013212404446676373,
          -0.000370260066119954,
          -0.08703169971704483,
          -0.10579762607812881,
          -0.1648196578025818,
          0.09738621115684509,
          -0.025400619953870773,
          0.07450437545776367,
          0.08776210993528366,
          -0.11552617698907852,
          -0.016733435913920403,
          0.07655315101146698,
          0.1361238658428192,
          -0.15978999435901642,
          0.062297530472278595,
          0.03860674425959587,
          -0.0469927042722702,
          -0.09807539731264114,
          0.09136777371168137,
          0.16978606581687927,
          -0.02881700173020363,
          0.1684941053390503,
          0.07684702426195145,
          0.028569767251610756,
          -0.07836844027042389,
          0.006376564968377352,
          0.1482190638780594,
          -0.06605995446443558,
          -0.06926198303699493,
          0.03377121686935425
        ],
        [
          -0.1430250108242035,
          -0.11518117785453796,
          0.14493757486343384,
          -0.05811512842774391,
          0.15535233914852142,
          0.13687704503536224,
          -0.004262816626578569,
          0.02306886576116085,
          0.16830532252788544,
          0.05653727799654007,
          -0.17070114612579346,
          -0.06262056529521942,
          0.0670245960354805,
          0.1445814073085785,
          0.014296126551926136,
          -0.11571773141622543,
          -0.15668192505836487,
          -0.1250053197145462,
          -0.11754001677036285,
          0.16106197237968445,
          -0.1627565622329712,
          0.16544583439826965,
          -0.1452878713607788,
          -0.11254303902387619,
          -0.12721781432628632,
          0.036572862416505814,
          0.052177585661411285,
          0.1755925714969635,
          0.15604914724826813,
          0.07331515848636627,
          0.09653828293085098,
          -0.08315865695476532
        ],
        [
          -0.05499168857932091,
          0.01596071571111679,
          0.1555628776550293,
          -0.1105402261018753,
          -0.1744244396686554,
          0.1663678139448166,
          -0.019548866897821426,
          -0.017610829323530197,
          0.04612017795443535,
          0.12342860549688339,
          0.011233610101044178,
          0.15782900154590607,
          -0.00873535592108965,
          0.0624765045940876,
          0.10152874141931534,
          -0.13828527927398682,
          0.10585035383701324,
          0.1013125479221344,
          0.00918278656899929,
          0.07884520292282104,
          -0.1445259004831314,
          0.06230680271983147,
          -0.04166940972208977,
          -0.05645277351140976,
          0.10103391855955124,
          0.03754569590091705,
          -0.02466585300862789,
          -0.049871183931827545,
          0.00024599008611403406,
          0.01756320334970951,
          0.12559467554092407,
          0.08459629118442535
        ],
        [
          -0.11605145037174225,
          0.14488685131072998,
          0.08208777010440826,
          0.15754403173923492,
          -0.14807850122451782,
          -0.05674242600798607,
          -0.12187578529119492,
          0.15256531536579132,
          -0.1529257446527481,
          0.1396293193101883,
          -0.08613378554582596,
          0.04132755473256111,
          -0.14703349769115448,
          -0.13562406599521637,
          -0.03946850076317787,
          0.03552475571632385,
          -0.17402736842632294,
          -0.1114305779337883,
          -0.04686859995126724,
          0.15085172653198242,
          0.011067910119891167,
          0.048475366085767746,
          -0.08381307125091553,
          0.16183775663375854,
          0.038474004715681076,
          0.0916045755147934,
          0.024040941148996353,
          -0.02745039016008377,
          -0.04947907105088234,
          0.07530094683170319,
          -0.10094039142131805,
          0.15215390920639038
        ],
        [
          -0.14038830995559692,
          -0.011520883068442345,
          0.03441368043422699,
          -0.09598293155431747,
          0.048165712505578995,
          0.15439589321613312,
          -0.0889810174703598,
          -0.006529895588755608,
          0.06358674168586731,
          -0.11075713485479355,
          -0.006691402290016413,
          -0.09272351115942001,
          -0.07163015007972717,
          -0.15237084031105042,
          -0.14206142723560333,
          0.041305553168058395,
          0.0340469628572464,
          0.051273033022880554,
          0.11118890345096588,
          0.09616631269454956,
          -0.10488192737102509,
          -0.07015589624643326,
          0.0017539621330797672,
          -0.001218444318510592,
          -0.02916867472231388,
          -0.06756187975406647,
          -0.13596080243587494,
          -0.11330802738666534,
          0.0036142817698419094,
          0.1430956870317459,
          -0.06570211052894592,
          0.07054037600755692
        ]
      ],
      "biases": [
        0.1596274971961975,
        -0.09305446594953537,
        0.17581692337989807,
        -0.08464621007442474,
        -0.12330294400453568,
        0.02218930423259735,
        0.07506878674030304,
        -0.06509193032979965,
        -0.031694915145635605,
        -0.12999872863292694,
        -0.054522931575775146,
        -0.07425165921449661,
        -0.17092812061309814,
        -0.046107999980449677,
        0.08750048279762268,
        -0.16258323192596436,
        0.1124931201338768,
        0.046261098235845566,
        -0.003969368990510702,
        0.016058623790740967,
        -0.08156521618366241,
        0.039057567715644836,
        0.16561639308929443,
        -0.10404278337955475,
        -0.0985289216041565,
        -0.13252030313014984,
        0.1548772156238556,
        0.12536849081516266,
        -0.10447434335947037,
        -0.1359391212463379,
        -0.06032918766140938,
        -0.09103778004646301
      ]
    },
    {
      "weights": [
        [
          0.0016674979124218225,
          0.09650226682424545,
          0.003997059538960457,
          -0.13938133418560028,
          0.002418470336124301,
          -0.10219316929578781,
          0.17266114056110382,
          -0.15774184465408325,
          -0.1459299474954605,
          -0.11546280980110168,
          -0.0022400838788598776,
          -0.12404316663742065,
          -0.04324650019407272,
          -0.012399686500430107,
          0.13194990158081055,
          -0.13305900990962982,
          -0.10325314104557037,
          -0.07550698518753052,
          0.002776170615106821,
          -0.06370685994625092,
          -0.17301703989505768,
          0.028202857822179794,
          0.060436978936195374,
          -0.0180395245552063,
          -0.0809941217303276,
          0.13152259588241577,
          -0.05376989394426346,
          0.05932360514998436,
          0.010449488647282124,
          -0.07880055159330368,
          0.04668517783284187,
          -0.032698556780815125
        ],
        [
          0.008397232741117477,
          -0.06550783663988113,
          -0.09946279227733612,
          0.013444654643535614,
          0.04755057767033577,
          -0.0591229647397995,
          0.09645860642194748,
          0.017217261716723442,
          0.062130607664585114,
          -0.1342862844467163,
          0.14779454469680786,
          0.07261480391025543,
          -0.1329166144132614,
          0.1653626263141632,
          -0.04060673713684082,
          -0.11845776438713074,
          -0.15295295417308807,
          0.05732673034071922,
          -0.01510456670075655,
          -0.14317569136619568,
          0.09514039754867554,
          0.022278234362602234,
          -0.11180673539638519,
          -0.015581352636218071,
          -0.12320394068956375,
          0.16464459896087646,
          -0.14296004176139832,
          -0.1664716601371765,
          -0.1076415553689003,
          -0.14352242648601532,
          0.01485705841332674,
          -0.07229170948266983
        ],
        [
          0.12243271619081497,
          0.004952739458531141,
          0.028628837317228317,
          -0.12627743184566498,
          0.05986662581562996,
          0.06621082127094269,
          -0.13689205050468445,
          0.0767386183142662,
          -0.020940491929650307,
          0.010023321025073528,
          -0.17650286853313446,
          0.06280959397554398,
          0.07955817878246307,
          0.08776693046092987,
          0.021110491827130318,
          0.12191861122846603,
          0.001223839120939374,
          0.13264626264572144,
          0.14934849739074707,
          -0.15569078922271729,
          0.0908985510468483,
          0.0717850774526596,
          0.06629979610443115,
          -0.020604455843567848,
          -0.08236798644065857,
          -0.04190028831362724,
          -0.10319200158119202,
          0.13564808666706085,
          0.028530128300189972,
          -0.01982111483812332,
          -0.058149900287389755,
          0.14885307848453522
        ]
      ],
      "biases": [
        -0.1593027412891388,
        0.017062624916434288,
        0.05414474755525589
      ]
    }
  ]
}