{
  "fc1_weight": [
    [
      -0.3392687737941742,
      -0.13126608729362488,
      -0.061524588614702225,
      -0.2056463658809662,
      -0.24911753833293915,
      -0.32311341166496277,
      0.24832840263843536,
      0.2374749779701233
    ],
    [
      0.48507967591285706,
      0.14328473806381226,
      -0.06796514987945557,
      0.531769871711731,
      0.08531691133975983,
      0.2858414351940155,
      0.11201807111501694,
      -0.12711836397647858
    ],
    [
      0.2983001172542572,
      0.15707740187644958,
      -0.3087844252586365,
      -0.35318127274513245,
      -0.12217016518115997,
      -0.19637008011341095,
      -0.3194364011287689,
      0.2589047849178314
    ],
    [
      -0.14878755807876587,
      -0.028142809867858887,
      -0.07136383652687073,
      -0.15491297841072083,
      -0.061631470918655396,
      -0.3366999626159668,
      0.20309075713157654,
      -0.15685847401618958
    ],
    [
      0.48441243171691895,
      0.22681261599063873,
      0.012844191864132881,
      0.27188771963119507,
      0.319744735956192,
      0.4596482515335083,
      0.46341875195503235,
      0.21345536410808563
    ],
    [
      0.3420927822589874,
      -0.04568123817443848,
      -0.29437801241874695,
      -0.21932286024093628,
      -0.08026855438947678,
      -0.08142925053834915,
      -0.25779518485069275,
      -0.16990570724010468
    ],
    [
      0.17072385549545288,
      0.13418561220169067,
      0.07014527916908264,
      0.23389466106891632,
      0.4162598252296448,
      0.4545518159866333,
      0.4809287190437317,
      0.4410531222820282
    ],
    [
      0.3043355941772461,
      0.49662384390830994,
      0.5838320851325989,
      -0.03466467186808586,
      0.5679210424423218,
      0.39894697070121765,
      0.08389133214950562,
      -0.010795427486300468
    ],
    [
      0.1585497111082077,
      0.4390500783920288,
      0.22892215847969055,
      0.11570586264133453,
      0.1358194202184677,
      0.3960355818271637,
      0.21524319052696228,
      -0.032588277012109756
    ],
    [
      0.559186577796936,
      0.32827985286712646,
      0.38262319564819336,
      0.5246565937995911,
      0.4397459924221039,
      0.43724262714385986,
      0.05090239271521568,
      0.3093189001083374
    ],
    [
      0.1733035445213318,
      0.6021941304206848,
      0.3735700249671936,
      0.14210297167301178,
      0.32978370785713196,
      -0.06167863681912422,
      0.11257445067167282,
      0.048443377017974854
    ],
    [
      0.195471853017807,
      0.0973341315984726,
      0.011939442716538906,
      0.42910879850387573,
      0.5406851768493652,
      0.21867528557777405,
      0.02041090466082096,
      -0.05692929029464722
    ],
    [
      0.3563198149204254,
      0.3613957166671753,
      0.47868433594703674,
      0.34525787830352783,
      -0.07823000103235245,
      0.3043774366378784,
      -0.0019032822456210852,
      0.10074479877948761
    ],
    [
      0.0062993373721838,
      -0.2460273951292038,
      0.15065886080265045,
      -0.3018118143081665,
      0.02615492232143879,
      0.19777332246303558,
      -0.0790175199508667,
      -0.08079372346401215
    ],
    [
      -0.3158884644508362,
      -0.03543010354042053,
      0.19249698519706726,
      -0.09505358338356018,
      -0.3422275483608246,
      -0.11006885766983032,
      0.2919914424419403,
      -0.027562260627746582
    ],
    [
      0.2541310787200928,
      -0.08602339774370193,
      0.2565441131591797,
      0.3868896961212158,
      0.5394883155822754,
      0.49741965532302856,
      0.23758356273174286,
      0.25636640191078186
    ],
    [
      0.053077332675457,
      0.2748297154903412,
      0.38763943314552307,
      0.4589419662952423,
      0.22184713184833527,
      0.21221080422401428,
      -0.08871383219957352,
      0.3510696589946747
    ],
    [
      -0.08146274834871292,
      0.5451496839523315,
      0.45230090618133545,
      0.08848786354064941,
      -0.10368713736534119,
      0.4783816337585449,
      -0.013220127671957016,
      0.07454659789800644
    ],
    [
      -0.2740466594696045,
      0.16158846020698547,
      -0.22743913531303406,
      -0.05624762177467346,
      0.021129339933395386,
      0.07543855905532837,
      0.14266422390937805,
      0.01295897364616394
    ],
    [
      -0.1831534057855606,
      0.09517084807157516,
      0.27371400594711304,
      -0.23887349665164948,
      0.15018996596336365,
      -0.32879355549812317,
      -0.07430245727300644,
      0.22012010216712952
    ],
    [
      0.18447977304458618,
      0.3683234751224518,
      0.4269210398197174,
      0.18570750951766968,
      0.5473700165748596,
      -0.004144033882766962,
      0.5080887675285339,
      -0.025777580216526985
    ],
    [
      0.1534745693206787,
      -0.2526026964187622,
      -0.3319379687309265,
      -0.06933603435754776,
      0.027417544275522232,
      -0.04359596595168114,
      0.09566374123096466,
      -0.17403431236743927
    ],
    [
      -0.27826035022735596,
      0.2613230049610138,
      -0.03797826170921326,
      -0.18505138158798218,
      -0.17131559550762177,
      0.280846506357193,
      0.1284812092781067,
      -0.33685919642448425
    ],
    [
      0.16264131665229797,
      -0.18466301262378693,
      -0.2720646262168884,
      0.29261860251426697,
      0.0033048519399017096,
      -0.051367565989494324,
      0.021486181765794754,
      -0.28891363739967346
    ],
    [
      0.009360730648040771,
      -0.12921902537345886,
      0.03755354881286621,
      -0.23959943652153015,
      -0.21774254739284515,
      -0.12762992084026337,
      -0.022059202194213867,
      0.05919495224952698
    ],
    [
      0.3269430100917816,
      -0.2436458319425583,
      -0.1835305541753769,
      -0.11213821172714233,
      -0.06357917189598083,
      0.09037265926599503,
      0.2826104164123535,
      -0.03730947524309158
    ],
    [
      0.5882935523986816,
      0.43225958943367004,
      0.5649411678314209,
      0.6025880575180054,
      0.5257540345191956,
      0.46264126896858215,
      0.3899385631084442,
      0.3692358434200287
    ],
    [
      0.45596373081207275,
      0.4160139858722687,
      -0.038371115922927856,
      0.4498039186000824,
      0.5520747900009155,
      -0.026815585792064667,
      0.3663731515407562,
      0.26405128836631775
    ],
    [
      0.30309221148490906,
      0.48907470703125,
      0.3659476041793823,
      0.39804384112358093,
      0.27189895510673523,
      0.36748164892196655,
      0.16512179374694824,
      0.19919557869434357
    ],
    [
      0.2660178542137146,
      0.25620943307876587,
      0.43265238404273987,
      0.561444878578186,
      -0.08812737464904785,
      0.6000586152076721,
      0.3701933026313782,
      0.14649169147014618
    ],
    [
      -0.20797908306121826,
      -0.04545902833342552,
      -0.2665330469608307,
      0.08310605585575104,
      -0.2602604031562805,
      -0.014280198141932487,
      0.27881065011024475,
      0.3675980567932129
    ],
    [
      0.35822391510009766,
      -0.26150208711624146,
      0.17904157936573029,
      0.24033838510513306,
      -0.04700993373990059,
      -0.29407525062561035,
      -0.29607343673706055,
      -0.1827721744775772
    ],
    [
      0.4859531819820404,
      0.2494489997625351,
      0.2074405401945114,
      0.1263888031244278,
      0.569117546081543,
      -0.047261793166399,
      0.13820306956768036,
      0.5565897822380066
    ],
    [
      0.0674000009894371,
      0.17796455323696136,
      0.5274589657783508,
      -0.09323473274707794,
      0.1428566575050354,
      0.516287624835968,
      0.3510090410709381,
      0.0905974805355072
    ],
    [
      -0.18308240175247192,
      -0.13388706743717194,
      0.07572402060031891,
      -0.1849243938922882,
      -0.213984414935112,
      0.0008772239671088755,
      -0.2374459207057953,
      0.31708475947380066
    ],
    [
      0.27597546577453613,
      -0.03635890409350395,
      0.0413338802754879,
      0.488623708486557,
      0.3928163945674896,
      0.35236886143684387,
      0.14384698867797852,
      0.39206641912460327
    ],
    [
      0.5579390525817871,
      0.3302132487297058,
      0.25322404503822327,
      0.09178557246923447,
      0.41673070192337036,
      0.33197957277297974,
      0.45879411697387695,
      0.08069178462028503
    ],
    [
      0.5202747583389282,
      0.1153421625494957,
      0.4515277147293091,
      0.13211670517921448,
      0.134750097990036,
      0.1604945808649063,
      0.009531286545097828,
      0.367593914270401
    ],
    [
      0.22301241755485535,
      0.2532862722873688,
      0.2642076909542084,
      0.007095920387655497,
      0.161134272813797,
      0.3197067081928253,
      -0.013499974273145199,
      -0.19305311143398285
    ],
    [
      0.5835714936256409,
      0.03822075203061104,
      0.3078412115573883,
      -0.08966261893510818,
      0.418209046125412,
      0.42462071776390076,
      0.4798226058483124,
      0.22353415191173553
    ],
    [
      0.008447021245956421,
      0.3761332333087921,
      0.034033674746751785,
      0.5192436575889587,
      0.5622929334640503,
      0.2986491620540619,
      0.21292558312416077,
      0.4813684821128845
    ],
    [
      0.5351053476333618,
      0.040314219892024994,
      0.44511789083480835,
      -0.07121992111206055,
      0.28735247254371643,
      0.24387235939502716,
      0.4921247363090515,
      0.1378290206193924
    ],
    [
      0.2969488203525543,
      -0.08181164413690567,
      0.3070340156555176,
      0.600825846195221,
      0.3887651860713959,
      0.2824190855026245,
      0.3260660171508789,
      0.20189565420150757
    ],
    [
      0.5584797859191895,
      0.09174486994743347,
      0.5847733020782471,
      0.27069225907325745,
      0.4369790256023407,
      0.25275716185569763,
      0.4570421874523163,
      0.45286276936531067
    ],
    [
      0.12818291783332825,
      0.31668129563331604,
      -0.08114457130432129,
      0.37435686588287354,
      0.26404353976249695,
      0.3031821846961975,
      0.17589345574378967,
      0.013307368382811546
    ],
    [
      -0.05430484563112259,
      -0.07537221163511276,
      0.08828850090503693,
      -0.10173150151968002,
      -0.07552386075258255,
      0.08262722939252853,
      -0.127122163772583,
      0.07115943729877472
    ],
    [
      -0.10475188493728638,
      -0.2611069977283478,
      -0.1311938762664795,
      -0.2780090570449829,
      0.015089084394276142,
      0.12785793840885162,
      0.06117112189531326,
      -0.1550205498933792
    ],
    [
      -0.19459423422813416,
      -0.23730292916297913,
      -0.29375508427619934,
      -0.025731435045599937,
      0.13506083190441132,
      -0.036179691553115845,
      -0.029139988124370575,
      0.12927259504795074
    ],
    [
      -0.1228756383061409,
      -0.05857633426785469,
      0.0861678346991539,
      0.043619703501462936,
      0.012124261818826199,
      0.23482337594032288,
      0.47650134563446045,
      0.03914793208241463
    ],
    [
      -0.04335291311144829,
      -0.1638525128364563,
      -0.20943787693977356,
      0.04422524571418762,
      0.3054136335849762,
      0.3433893024921417,
      0.12717027962207794,
      0.04902369901537895
    ],
    [
      0.18285129964351654,
      0.29072290658950806,
      -0.08889597654342651,
      0.23719722032546997,
      0.40633344650268555,
      0.5146253705024719,
      -0.020789839327335358,
      0.47395607829093933
    ],
    [
      0.12168697267770767,
      0.15535219013690948,
      -0.0694955587387085,
      -0.3193191587924957,
      -0.06507792323827744,
      -0.3631805181503296,
      0.2708003520965576,
      -0.06962154805660248
    ],
    [
      0.2753925621509552,
      0.23376289010047913,
      0.22974108159542084,
      0.059885211288928986,
      0.014118489809334278,
      -0.09348514676094055,
      0.3695150315761566,
      0.2604060173034668
    ],
    [
      0.5875672101974487,
      0.4560672342777252,
      0.4623693823814392,
      0.5930939316749573,
      0.3634377717971802,
      -0.03197100758552551,
      0.2524946928024292,
      0.4861668646335602
    ],
    [
      -0.22890092432498932,
      0.1610940396785736,
      -0.04765397310256958,
      -0.08057954907417297,
      -0.14598754048347473,
      -0.3081478178501129,
      0.051400989294052124,
      -0.06454390287399292
    ],
    [
      -0.24337822198867798,
      -0.24166405200958252,
      -0.1886959820985794,
      -0.013163973577320576,
      -0.16831785440444946,
      -0.21313348412513733,
      0.3081219792366028,
      0.16635668277740479
    ],
    [
      -0.11454490572214127,
      -0.17505432665348053,
      0.20801270008087158,
      -0.24323153495788574,
      0.013780521228909492,
      -0.22480827569961548,
      0.09558270126581192,
      0.09792555123567581
    ],
    [
      0.593612790107727,
      0.09012395143508911,
      0.5050776600837708,
      0.32590392231941223,
      0.4012538194656372,
      0.32006797194480896,
      0.0085670817643404,
      -0.0659513771533966
    ],
    [
      0.35486045479774475,
      0.5611107349395752,
      0.01596476510167122,
      0.5379521250724792,
      0.2709084451198578,
      0.55086749792099,
      0.03840724378824234,
      -0.03222539275884628
    ],
    [
      0.29194292426109314,
      0.25369417667388916,
      0.5315258502960205,
      -0.06367552280426025,
      0.16185970604419708,
      0.4747718274593353,
      -0.018299106508493423,
      0.08298834413290024
    ],
    [
      -0.04320076107978821,
      0.05892947316169739,
      -0.08408376574516296,
      -0.041778773069381714,
      -0.24033528566360474,
      0.330658882856369,
      -0.29922980070114136,
      -0.17192967236042023
    ],
    [
      0.21754686534404755,
      0.5043607950210571,
      0.23047630488872528,
      0.2148343175649643,
      0.07756753265857697,
      0.5688315629959106,
      0.30809152126312256,
      0.4154902398586273
    ],
    [
      0.3139023780822754,
      -0.2778353691101074,
      -0.2536854147911072,
      -0.2198411524295807,
      0.20118853449821472,
      -0.32050395011901855,
      -0.10547138005495071,
      0.08025237917900085
    ],
    [
      0.42743927240371704,
      0.37022170424461365,
      0.10577256232500076,
      0.38903912901878357,
      0.5246144533157349,
      0.3809225857257843,
      0.16847479343414307,
      0.43127235770225525
    ]
  ],
  "fc1_bias": [
    0.10637778043746948,
    0.04582522064447403,
    -0.08017800003290176,
    -0.23507913947105408,
    -0.1015247255563736,
    0.025617271661758423,
    0.5212763547897339,
    0.3984132707118988,
    0.02030152641236782,
    0.445916086435318,
    0.5703782439231873,
    0.4333300292491913,
    0.41161853075027466,
    -0.008467383682727814,
    -0.2728912830352783,
    0.5719139575958252,
    0.3655085265636444,
    0.2578517496585846,
    -0.3408849835395813,
    -0.3034909665584564,
    0.19844849407672882,
    0.30059558153152466,
    -0.2934000492095947,
    -0.09044580906629562,
    -0.24501028656959534,
    -0.313210129737854,
    0.48788896203041077,
    0.17378103733062744,
    0.2263607382774353,
    0.1545010209083557,
    -0.03704631328582764,
    -0.15336748957633972,
    0.478071004152298,
    0.4835425317287445,
    -0.10119005292654037,
    0.15513141453266144,
    0.5643442273139954,
    0.5919135212898254,
    -0.10143458098173141,
    0.4765012264251709,
    -0.044187840074300766,
    0.21164719760417938,
    0.5895226001739502,
    0.5996221899986267,
    0.16284014284610748,
    -0.016672415658831596,
    0.0028755469247698784,
    0.21195565164089203,
    0.3098321855068207,
    -0.3089942932128906,
    -0.0687413364648819,
    -0.35313278436660767,
    -0.22112035751342773,
    0.13701200485229492,
    -0.21735075116157532,
    -0.1866910755634308,
    0.08371995389461517,
    0.48139700293540955,
    0.60395747423172,
    0.508611798286438,
    -0.27463120222091675,
    0.40732795000076294,
    0.023557690903544426,
    0.20512941479682922
  ],
  "fc2_weight": [
    [
      0.0600178986787796,
      -0.064371258020401,
      0.06617733836174011,
      0.023383036255836487,
      0.09918530285358429,
      -0.053497254848480225,
      -0.09612724184989929,
      -0.03758646547794342,
      -0.06202352046966553,
      0.02573472261428833,
      0.0024003982543945312,
      -0.003393039107322693,
      0.05135767161846161,
      -0.046557798981666565,
      0.02848118543624878,
      -0.09629246592521667,
      -0.09672196209430695,
      0.0782361626625061,
      0.06675727665424347,
      -0.013544350862503052,
      0.029027149081230164,
      -0.10667385160923004,
      -0.056272104382514954,
      0.11641789972782135,
      -0.007290273904800415,
      -0.05324678122997284,
      -0.08150555193424225,
      0.04854683578014374,
      0.03539608418941498,
      0.07728168368339539,
      -0.11718982458114624,
      0.016136109828948975,
      -0.0801672488451004,
      -0.11684365570545197,
      -0.12486697733402252,
      0.07050979137420654,
      0.054185837507247925,
      -0.10485105216503143,
      0.0018236637115478516,
      -0.11145763099193573,
      -0.0906730443239212,
      0.06603662669658661,
      -0.036690905690193176,
      -0.10694098472595215,
      0.04514420032501221,
      0.09458978474140167,
      -0.12045791745185852,
      0.008032232522964478,
      -0.031583428382873535,
      -0.10542955994606018,
      -0.05227842926979065,
      -0.0487283319234848,
      -0.09693051874637604,
      -0.12165722250938416,
      -0.06345486640930176,
      0.0198935866355896,
      0.008040428161621094,
      -0.10881878435611725,
      0.07416868209838867,
      -0.10507832467556,
      0.07243576645851135,
      0.09664447605609894,
      -0.0800422728061676,
      0.017393022775650024
    ],
    [
      -0.02207731455564499,
      0.11070287972688675,
      0.10696171969175339,
      -0.02102038264274597,
      0.2819213271141052,
      -0.12446178495883942,
      0.3513150215148926,
      0.3606204390525818,
      0.28968507051467896,
      0.2130153626203537,
      0.19711574912071228,
      0.14414197206497192,
      0.3046185076236725,
      -0.10332939028739929,
      0.025563955307006836,
      0.3299778997898102,
      0.16069334745407104,
      0.36859723925590515,
      -0.05945028364658356,
      0.05309392884373665,
      0.3390582501888275,
      -0.10960565507411957,
      -0.054347649216651917,
      0.026830630376935005,
      -0.071353480219841,
      -0.019997157156467438,
      0.3371829092502594,
      0.30921676754951477,
      0.19340896606445312,
      0.25102341175079346,
      -0.07304541766643524,
      0.029432272538542747,
      0.23279757797718048,
      0.3689194917678833,
      0.07081247866153717,
      0.1612602025270462,
      0.33804845809936523,
      0.24206657707691193,
      0.09799820184707642,
      0.35704779624938965,
      0.13383492827415466,
      0.21532677114009857,
      0.14946837723255157,
      0.1321703940629959,
      0.2153145670890808,
      0.1123175173997879,
      -0.06220341473817825,
      -0.14834341406822205,
      -0.01973078027367592,
      0.07664559781551361,
      0.1959708333015442,
      0.04274403303861618,
      0.11175072193145752,
      0.1221473291516304,
      0.09408022463321686,
      -0.08310592919588089,
      -0.03145230934023857,
      0.24952343106269836,
      0.2189921885728836,
      0.18687176704406738,
      -0.026219770312309265,
      0.3429884910583496,
      -0.03731586039066315,
      0.16540320217609406
    ],
    [
      -0.05972399190068245,
      0.3100421726703644,
      -0.11824184656143188,
      -0.1084943562746048,
      0.2972034215927124,
      0.0653858557343483,
      0.17489100992679596,
      0.23266801238059998,
      0.13367392122745514,
      0.29573872685432434,
      0.18188031017780304,
      0.349810928106308,
      0.23571538925170898,
      0.044711560010910034,
      -0.06590576469898224,
      0.16232620179653168,
      0.2294161468744278,
      0.1134718507528305,
      -0.02041804790496826,
      -0.03689673915505409,
      0.29685115814208984,
      -0.025002704933285713,
      0.09953972697257996,
      -0.015441562980413437,
      -0.03175792098045349,
      -0.015946919098496437,
      0.2082381546497345,
      0.28223907947540283,
      0.22147132456302643,
      0.23152314126491547,
      0.07936315983533859,
      0.010940602980554104,
      0.16490955650806427,
      0.284209668636322,
      -0.014127643778920174,
      0.20387856662273407,
      0.1679764986038208,
      0.2511213719844818,
      0.22761282324790955,
      0.31724292039871216,
      0.2662357687950134,
      0.3585255742073059,
      0.1851898431777954,
      0.3156779408454895,
      0.1944332867860794,
      -0.03986882418394089,
      -0.08751196414232254,
      0.04103093594312668,
      -0.007280300371348858,
      0.11543843150138855,
      0.2247614711523056,
      -0.047620728611946106,
      0.24592866003513336,
      0.34934693574905396,
      -0.0820607990026474,
      0.016510261222720146,
      0.020104143768548965,
      0.35742104053497314,
      0.1439356505870819,
      0.24653586745262146,
      0.04776914417743683,
      0.27410486340522766,
      -0.036509376019239426,
      0.15712721645832062
    ],
    [
      0.04807308316230774,
      0.153879314661026,
      -0.09989918023347855,
      -0.03201951086521149,
      0.16432014107704163,
      -0.102265864610672,
      0.24069684743881226,
      0.3245314955711365,
      0.2042025774717331,
      0.13277800381183624,
      0.15451890230178833,
      0.1367257982492447,
      0.3000609874725342,
      0.06038641929626465,
      0.0996796190738678,
      0.3601497411727905,
      0.29054367542266846,
      0.27317744493484497,
      -0.11627434194087982,
      0.07842933386564255,
      0.31288760900497437,
      0.09017381072044373,
      -0.10991321504116058,
      -0.01870906352996826,
      0.017130091786384583,
      -0.0526740700006485,
      0.27583491802215576,
      0.34024128317832947,
      0.18085980415344238,
      0.36395853757858276,
      -0.07499048113822937,
      0.04400409013032913,
      0.20991666615009308,
      0.3308437764644623,
      -0.027351368218660355,
      0.1293065994977951,
      0.22792352735996246,
      0.2919543981552124,
      0.08316546678543091,
      0.3167957067489624,
      0.31478431820869446,
      0.23201069235801697,
      0.28374677896499634,
      0.10533402115106583,
      0.1727399230003357,
      0.005834424868226051,
      0.10543586313724518,
      0.0015687078703194857,
      0.18512128293514252,
      -0.051744505763053894,
      0.36095374822616577,
      -0.05666882172226906,
      0.27045658230781555,
      0.32031768560409546,
      0.007012099027633667,
      0.06261754035949707,
      -0.08086293190717697,
      0.1274612545967102,
      0.3065149188041687,
      0.1936807632446289,
      -0.11777956783771515,
      0.12414691597223282,
      -0.10644064098596573,
      0.31328555941581726
    ],
    [
      0.04362975060939789,
      0.11837321519851685,
      0.015124261379241943,
      -0.12477053701877594,
      0.019519224762916565,
      -0.0686633437871933,
      0.050880059599876404,
      -0.10603754222393036,
      0.03298841416835785,
      -0.09615756571292877,
      0.0215255469083786,
      0.015086978673934937,
      -0.027166590094566345,
      -1.7270445823669434e-05,
      0.06301742792129517,
      -0.014455482363700867,
      0.058142468333244324,
      0.005392998456954956,
      0.11486899852752686,
      0.07739061117172241,
      0.009804204106330872,
      -0.030959531664848328,
      -0.11066378653049469,
      -0.052775293588638306,
      -0.04034954309463501,
      -0.008266955614089966,
      0.08194871246814728,
      -0.07273241877555847,
      -0.123594731092453,
      0.028766930103302002,
      -0.1203911155462265,
      0.0808720588684082,
      -0.11653083562850952,
      -0.028312131762504578,
      0.07370835542678833,
      0.01828557252883911,
      -0.07252521812915802,
      0.04073938727378845,
      -0.06687289476394653,
      -0.08564628660678864,
      0.024026423692703247,
      -0.10698658227920532,
      0.06780502200126648,
      -0.06394679844379425,
      -0.09584465622901917,
      0.04695473611354828,
      0.10898970067501068,
      0.025354325771331787,
      -0.03884054720401764,
      -0.08248710632324219,
      0.027301117777824402,
      -0.1016886979341507,
      -0.02819153666496277,
      0.002575695514678955,
      0.06306743621826172,
      0.10862183570861816,
      0.10010448098182678,
      0.07058902084827423,
      -0.07164682447910309,
      0.056617483496665955,
      -0.09186086058616638,
      0.052955999970436096,
      -0.039125412702560425,
      0.013559415936470032
    ],
    [
      -0.12596909701824188,
      0.24346080422401428,
      -0.05979325622320175,
      -0.08037599921226501,
      0.2739422917366028,
      0.032836779952049255,
      0.21054446697235107,
      0.3206460177898407,
      0.237204447388649,
      0.3381824791431427,
      0.12427305430173874,
      0.21018239855766296,
      0.2377833127975464,
      -0.04298919811844826,
      -0.10949192941188812,
      0.1959884762763977,
      0.2419552505016327,
      0.23127566277980804,
      0.0025601983070373535,
      0.09761658310890198,
      0.36683425307273865,
      -0.06593367457389832,
      -0.08585333824157715,
      0.11222531646490097,
      -0.10827301442623138,
      -0.11305715888738632,
      0.3367049992084503,
      0.2931051254272461,
      0.13081756234169006,
      0.13995537161827087,
      0.05967342108488083,
      0.036080747842788696,
      0.23584450781345367,
      0.3582327663898468,
      -0.10082097351551056,
      0.26419442892074585,
      0.3213166296482086,
      0.3267087936401367,
      0.16421666741371155,
      0.28038060665130615,
      0.2295314520597458,
      0.2965173125267029,
      0.18172182142734528,
      0.13055217266082764,
      0.2647916078567505,
      -0.07535364478826523,
      -0.023130672052502632,
      0.09111837297677994,
      0.22490710020065308,
      0.0239076130092144,
      0.13881085813045502,
      0.04155814275145531,
      0.1146060973405838,
      0.2014620155096054,
      0.06644456088542938,
      -0.0049544149078428745,
      -0.10500650852918625,
      0.12561768293380737,
      0.25302428007125854,
      0.1270839273929596,
      -0.05323179066181183,
      0.11845281720161438,
      -0.08810067921876907,
      0.23798952996730804
    ],
    [
      -0.13500811159610748,
      0.2840389907360077,
      -0.12506058812141418,
      0.011186480522155762,
      0.3452301323413849,
      -0.15807963907718658,
      0.17504142224788666,
      0.3177041709423065,
      0.13718988001346588,
      0.19902265071868896,
      0.23740175366401672,
      0.2285565882921219,
      0.3071640133857727,
      -0.06752756983041763,
      -0.01529201865196228,
      0.22878912091255188,
      0.2522321045398712,
      0.3404982388019562,
      -0.0018904060125350952,
      -0.013881814666092396,
      0.369735985994339,
      -0.021195368841290474,
      0.07590751349925995,
      -0.012166566215455532,
      -0.11014865338802338,
      -0.09376835823059082,
      0.3335939943790436,
      0.17259937524795532,
      0.19880551099777222,
      0.1776650995016098,
      0.002779961796477437,
      0.16364209353923798,
      0.3348272442817688,
      0.3449912369251251,
      0.011580286547541618,
      0.18237873911857605,
      0.28200066089630127,
      0.1428760141134262,
      0.1409955471754074,
      0.3196566104888916,
      0.333827942609787,
      0.1923382580280304,
      0.146548330783844,
      0.26167815923690796,
      0.08401577174663544,
      -0.07479594647884369,
      -0.055428046733140945,
      0.007556781638413668,
      0.18815076351165771,
      0.10902014374732971,
      0.32611000537872314,
      -0.0662025660276413,
      0.07582022249698639,
      0.1681281179189682,
      -0.029429540038108826,
      -0.1484241932630539,
      0.014987909235060215,
      0.20982986688613892,
      0.2954421043395996,
      0.1686304807662964,
      0.1103833019733429,
      0.17727845907211304,
      0.06537479907274246,
      0.2942386269569397
    ],
    [
      0.0777302086353302,
      0.09332975745201111,
      -0.11257730424404144,
      0.07782244682312012,
      0.042320847511291504,
      -0.03345276415348053,
      -0.07646854221820831,
      -0.038994669914245605,
      -0.012308582663536072,
      -0.014636427164077759,
      0.009488314390182495,
      -0.11593323945999146,
      -0.0485215038061142,
      0.014580577611923218,
      0.040008872747421265,
      -0.012986704707145691,
      -0.09299011528491974,
      -0.10735036432743073,
      -0.019013166427612305,
      0.10255056619644165,
      0.08251795172691345,
      -0.09955386817455292,
      -0.07105472683906555,
      -0.11834943294525146,
      -0.05478939414024353,
      0.04647698998451233,
      -0.12419162690639496,
      0.04713079333305359,
      0.06463545560836792,
      -0.0961277037858963,
      0.08875420689582825,
      -0.07104051113128662,
      0.04607243835926056,
      -0.11476664245128632,
      0.08178888261318207,
      -0.045645758509635925,
      0.014429107308387756,
      -0.006685569882392883,
      0.02533334493637085,
      -0.0009172409772872925,
      0.022135406732559204,
      -0.006315663456916809,
      -0.026894167065620422,
      -0.04027546942234039,
      0.11199061572551727,
      -0.08305242657661438,
      -0.08334951102733612,
      0.09382858872413635,
      0.08041375875473022,
      0.12256534397602081,
      0.11389043927192688,
      0.08534419536590576,
      0.1143798828125,
      -0.08058653771877289,
      -0.06742613017559052,
      0.032967209815979004,
      0.05724242329597473,
      0.09179383516311646,
      -0.10935850441455841,
      -0.09374009072780609,
      -0.021711796522140503,
      -0.07843568921089172,
      0.0265781432390213,
      -0.10146734118461609
    ],
    [
      -0.09770571440458298,
      0.14383670687675476,
      0.03384872153401375,
      -0.06955887377262115,
      0.05283617228269577,
      0.0021562669426202774,
      0.053838688880205154,
      0.04857450723648071,
      0.22858601808547974,
      0.08386347442865372,
      0.19872918725013733,
      0.12593239545822144,
      0.2571052014827728,
      0.033572275191545486,
      0.028803378343582153,
      0.25011587142944336,
      0.10275004059076309,
      0.28408360481262207,
      0.0017732679843902588,
      -0.08102738857269287,
      0.26087960600852966,
      -0.11955317854881287,
      0.06523993611335754,
      0.13124796748161316,
      -0.031647369265556335,
      0.07857620716094971,
      0.06955602020025253,
      0.22036048769950867,
      0.27670052647590637,
      0.2796258330345154,
      -0.054170239716768265,
      0.011366362683475018,
      0.20275159180164337,
      0.18419642746448517,
      -0.11910683661699295,
      0.08070410043001175,
      0.10405375063419342,
      0.23719994723796844,
      0.22346875071525574,
      0.07370766997337341,
      0.21119534969329834,
      0.23098689317703247,
      0.15600697696208954,
      0.15901434421539307,
      0.22677098214626312,
      -0.023972293362021446,
      -0.10464424639940262,
      0.016666842624545097,
      0.10838346183300018,
      -0.02448478899896145,
      0.13785409927368164,
      -0.053075794130563736,
      0.056041836738586426,
      0.08472757786512375,
      0.09134452044963837,
      0.0823151096701622,
      0.1018809825181961,
      0.09204166382551193,
      0.2291063815355301,
      0.15380354225635529,
      0.04095970094203949,
      0.22502917051315308,
      -0.11144015192985535,
      0.16792899370193481
    ],
    [
      0.016744360327720642,
      0.25525256991386414,
      -0.11227069795131683,
      0.006642088294029236,
      0.2233966737985611,
      -0.10428929328918457,
      0.24522383511066437,
      0.26503312587738037,
      0.10564728081226349,
      0.25029250979423523,
      0.17169323563575745,
      0.31611165404319763,
      0.35775625705718994,
      0.13999420404434204,
      -0.11299963295459747,
      0.14623771607875824,
      0.27734389901161194,
      0.2744112014770508,
      -0.036569058895111084,
      -0.12140720337629318,
      0.18149586021900177,
      -0.09535031765699387,
      -0.05081230401992798,
      -0.03472088649868965,
      -0.1169501394033432,
      0.05374429374933243,
      0.18743747472763062,
      0.21950942277908325,
      0.16822369396686554,
      0.2730403244495392,
      -0.11144665628671646,
      0.10541660338640213,
      0.3396778404712677,
      0.2486349493265152,
      0.04506988823413849,
      0.280137300491333,
      0.3094004988670349,
      0.26576921343803406,
      0.10925406962633133,
      0.282144695520401,
      0.164595827460289,
      0.33297839760780334,
      0.3489432632923126,
      0.3384983241558075,
      0.20965920388698578,
      0.019405942410230637,
      0.1375318318605423,
      -0.0202603992074728,
      0.11461252719163895,
      -0.0069154659286141396,
      0.1413685381412506,
      -0.11642692238092422,
      0.07234181463718414,
      0.349732905626297,
      0.009563982486724854,
      0.08065950125455856,
      -0.08689864724874496,
      0.29853522777557373,
      0.24731703102588654,
      0.15481509268283844,
      -0.03176268935203552,
      0.19104507565498352,
      -0.12465780973434448,
      0.21258561313152313
    ],
    [
      0.11802230775356293,
      -0.03339536488056183,
      -0.08858367800712585,
      0.06136573851108551,
      -0.11382785439491272,
      0.08208908140659332,
      -0.014826670289039612,
      -0.09374086558818817,
      -0.006905451416969299,
      -0.013481706380844116,
      0.08022306859493256,
      0.08682766556739807,
      0.0577901154756546,
      0.0484997034072876,
      0.10472060739994049,
      0.010896861553192139,
      -0.06266368925571442,
      0.11201414465904236,
      0.04853828251361847,
      -0.02324877679347992,
      0.06258779764175415,
      0.009236663579940796,
      0.07226130366325378,
      0.07392549514770508,
      0.0054216086864471436,
      -0.05688473582267761,
      -0.12405793368816376,
      -0.08145295083522797,
      0.05068330466747284,
      0.09568953514099121,
      0.08247131109237671,
      0.007949858903884888,
      -0.09344393014907837,
      0.12018357217311859,
      -0.046048328280448914,
      -0.01533806324005127,
      -0.08432616293430328,
      0.07457122206687927,
      0.029618754982948303,
      0.028715431690216064,
      0.007905334234237671,
      -0.06284677982330322,
      -0.022800400853157043,
      -0.09745195508003235,
      0.03631182014942169,
      0.041348353028297424,
      -0.11860895156860352,
      -0.006007954478263855,
      -0.04469716548919678,
      0.03752435743808746,
      -0.0018671303987503052,
      -0.003320842981338501,
      0.030976250767707825,
      -0.11755825579166412,
      0.11086931824684143,
      0.08404307067394257,
      0.10394474864006042,
      0.057851552963256836,
      0.028907477855682373,
      -0.005928859114646912,
      0.0615510493516922,
      -0.1163792610168457,
      0.00545075535774231,
      0.07825672626495361
    ],
    [
      0.09358914196491241,
      0.035262659192085266,
      0.03475141525268555,
      -0.02753491699695587,
      0.09209683537483215,
      0.06327241659164429,
      -0.004675046540796757,
      -0.07984575629234314,
      0.06695137172937393,
      -0.10213524103164673,
      -0.0759272351861,
      -0.010912290774285793,
      -0.09677127003669739,
      -0.07221648097038269,
      -0.07771055400371552,
      0.022764822468161583,
      0.0900011882185936,
      -0.031953006982803345,
      0.0709107518196106,
      -0.03632998466491699,
      0.10507123917341232,
      -0.037020549178123474,
      -0.04120008647441864,
      -0.09302128106355667,
      0.10376660525798798,
      -0.1004597395658493,
      -0.053417909890413284,
      -0.13056203722953796,
      0.009565521962940693,
      -0.04409493878483772,
      -0.014521448872983456,
      -0.05626837909221649,
      0.0961194783449173,
      -0.09398794919252396,
      0.015661539509892464,
      0.0817776694893837,
      -0.0752657800912857,
      -0.050870753824710846,
      -0.032221972942352295,
      0.024715589359402657,
      -0.06388884782791138,
      -0.014923465438187122,
      0.09239346534013748,
      -0.009784393012523651,
      0.09564025700092316,
      0.07071610540151596,
      0.1149282455444336,
      0.10098937898874283,
      0.09002676606178284,
      0.049907032400369644,
      -0.07822073251008987,
      -0.08673931658267975,
      -0.041455645114183426,
      -0.049338944256305695,
      0.11173659563064575,
      -0.041207004338502884,
      -0.0489979013800621,
      -0.08433514088392258,
      -0.0868300348520279,
      -0.0809868797659874,
      0.008597195148468018,
      0.04655282944440842,
      -0.12102368474006653,
      0.10160762816667557
    ],
    [
      -0.1051991879940033,
      -0.06844116747379303,
      0.014165014028549194,
      0.005281239748001099,
      -0.0842379480600357,
      0.02887997031211853,
      -0.11832539737224579,
      0.10468292236328125,
      -0.05012117326259613,
      0.0980689525604248,
      -0.06795550882816315,
      0.11475394666194916,
      -0.09064887464046478,
      -0.026472389698028564,
      0.08025985956192017,
      -0.06308840215206146,
      -0.09227012097835541,
      0.022131219506263733,
      0.004204928874969482,
      0.03449633717536926,
      -0.018581703305244446,
      -0.021066322922706604,
      0.04690806567668915,
      0.03720615804195404,
      -0.04772435128688812,
      -0.001956626772880554,
      -0.11278779804706573,
      0.03563554584980011,
      0.06499598920345306,
      -0.04162955284118652,
      0.07802693545818329,
      0.020646601915359497,
      -0.07473622262477875,
      0.03400033712387085,
      -0.00867435336112976,
      -0.06034974753856659,
      0.09969350695610046,
      0.06254914402961731,
      -0.06511470675468445,
      0.0688992440700531,
      0.08766570687294006,
      -0.1081988513469696,
      -0.0020620226860046387,
      -0.05204007029533386,
      0.027012914419174194,
      -0.020836204290390015,
      -0.07250523567199707,
      0.06769584119319916,
      -0.00833594799041748,
      -0.048817187547683716,
      0.04592356085777283,
      0.05766499042510986,
      0.0637977123260498,
      0.03498733043670654,
      -0.0181199312210083,
      0.060811832547187805,
      0.05143672227859497,
      -0.03279039263725281,
      -0.1182643473148346,
      0.05250191688537598,
      -0.06818366050720215,
      -0.04046642780303955,
      -0.12271805107593536,
      -0.02503502368927002
    ],
    [
      0.07874147593975067,
      -0.016868069767951965,
      -0.11331290006637573,
      -0.055556610226631165,
      -0.040323153138160706,
      -0.11842146515846252,
      0.08278760313987732,
      0.057768091559410095,
      0.012584313750267029,
      -0.11053396761417389,
      -0.036721229553222656,
      -0.08062531054019928,
      -0.006731703877449036,
      0.10520349442958832,
      0.03560715913772583,
      0.11635659635066986,
      0.02099345624446869,
      -0.02302815020084381,
      0.04399380087852478,
      -0.05137963593006134,
      -0.04805430769920349,
      0.007074639201164246,
      -0.024007722735404968,
      -0.1109723150730133,
      0.12084472179412842,
      0.08471088111400604,
      -0.027368173003196716,
      -0.03998318314552307,
      -0.013100042939186096,
      7.827579975128174e-05,
      0.01276928186416626,
      -0.019260093569755554,
      -0.08138805627822876,
      -0.03661699593067169,
      0.10838361084461212,
      -0.07514338195323944,
      0.07794587314128876,
      -0.06451626121997833,
      0.0804663896560669,
      0.08772118389606476,
      -0.0004153251647949219,
      -0.014505818486213684,
      -0.06154327094554901,
      -0.11243835091590881,
      -0.04276479780673981,
      0.09804245829582214,
      0.03193247318267822,
      0.09739726781845093,
      -0.07287079095840454,
      -0.058584511280059814,
      0.07606945931911469,
      0.1238400936126709,
      -0.10016770660877228,
      0.06086269021034241,
      0.06651417911052704,
      0.12495428323745728,
      0.004042863845825195,
      -0.0141075998544693,
      0.03576219081878662,
      -0.09372171759605408,
      -0.1045563817024231,
      -0.0548117458820343,
      -0.1206594854593277,
      -0.05768667161464691
    ],
    [
      0.12071919441223145,
      0.009791851043701172,
      -0.06378257274627686,
      -0.10351885855197906,
      -0.035332322120666504,
      0.10479307174682617,
      -0.009342283010482788,
      -0.08665309846401215,
      0.03168042004108429,
      0.09957568347454071,
      0.07676349580287933,
      0.07536457479000092,
      -0.10078762471675873,
      0.11401790380477905,
      0.11754508316516876,
      -0.005751952528953552,
      -0.06551644206047058,
      -0.08802363276481628,
      -0.06736379861831665,
      -0.09387868642807007,
      -0.007632598280906677,
      -0.08978073298931122,
      -0.03359866142272949,
      -0.02401864528656006,
      -0.11014926433563232,
      0.09199807047843933,
      -0.04062233865261078,
      -0.0030630379915237427,
      -0.06903903186321259,
      0.08277733623981476,
      0.09080702066421509,
      -0.07276387512683868,
      0.08057299256324768,
      -0.012796223163604736,
      -0.12000603973865509,
      0.027510374784469604,
      -0.056489527225494385,
      -0.021650254726409912,
      0.07451005280017853,
      0.09640850126743317,
      -0.03563857078552246,
      -0.049949392676353455,
      -0.0518486350774765,
      -0.06733419001102448,
      0.09020355343818665,
      0.041330620646476746,
      -0.07356198132038116,
      -0.02142910659313202,
      -0.09002403914928436,
      0.09917287528514862,
      -0.096681147813797,
      0.044293954968452454,
      -0.11179077625274658,
      -0.04891447722911835,
      0.04890391230583191,
      0.07082995772361755,
      0.009296596050262451,
      -0.09144940972328186,
      0.043989166617393494,
      0.1006564199924469,
      0.054025933146476746,
      -0.0895863026380539,
      0.01790200173854828,
      0.03174331784248352
    ],
    [
      -0.009246236644685268,
      0.1178133487701416,
      -0.046957120299339294,
      -0.03979896008968353,
      0.2867100238800049,
      -0.08646026253700256,
      0.15875497460365295,
      0.34708479046821594,
      0.22438952326774597,
      0.133795827627182,
      0.23414354026317596,
      0.21486489474773407,
      0.20318813621997833,
      0.1009124293923378,
      0.03323790431022644,
      0.28639286756515503,
      0.19296234846115112,
      0.33144882321357727,
      -0.034798577427864075,
      -0.09380980581045151,
      0.32361629605293274,
      0.046523820608854294,
      -0.06557153165340424,
      -0.01443237904459238,
      0.05049064755439758,
      -0.1430480033159256,
      0.3297628164291382,
      0.22738142311573029,
      0.13719969987869263,
      0.3534795045852661,
      -0.07658271491527557,
      0.11610585451126099,
      0.23713715374469757,
      0.19851849973201752,
      -0.033659398555755615,
      0.155790776014328,
      0.17988435924053192,
      0.2900487184524536,
      0.17879033088684082,
      0.35608232021331787,
      0.24143700301647186,
      0.2206244319677353,
      0.34611186385154724,
      0.3188416659832001,
      0.10376956313848495,
      -0.09843627363443375,
      0.07431737333536148,
      -0.06271613389253616,
      0.01618017815053463,
      0.02620786614716053,
      0.2493012547492981,
      0.0660548061132431,
      0.3153344392776489,
      0.20395150780677795,
      -0.05932377278804779,
      -0.02531193196773529,
      0.054890017956495285,
      0.20464609563350677,
      0.3601765036582947,
      0.13644784688949585,
      0.02209341526031494,
      0.24550563097000122,
      0.06910082697868347,
      0.2539706230163574
    ],
    [
      0.09331238269805908,
      -0.12884075939655304,
      0.03901674970984459,
      -0.08429549634456635,
      0.04177694767713547,
      0.05114380642771721,
      -0.08382675796747208,
      -0.10063677281141281,
      0.11770503968000412,
      -0.039813920855522156,
      0.057166121900081635,
      0.04895573481917381,
      -0.0012330671306699514,
      0.08391816914081573,
      -0.018832296133041382,
      -0.07210046052932739,
      0.0214276984333992,
      -0.061675265431404114,
      -0.04202413558959961,
      -0.10153096169233322,
      0.0226637814193964,
      0.004894224926829338,
      0.09631343185901642,
      -0.02126269042491913,
      -0.0999089926481247,
      0.008633144199848175,
      0.0233021043241024,
      0.09583257883787155,
      0.053012214601039886,
      -0.10605835169553757,
      -0.03854656592011452,
      0.02723560482263565,
      0.04172302037477493,
      -0.03576391562819481,
      -0.11012076586484909,
      -0.13502638041973114,
      0.0326484777033329,
      0.03690826892852783,
      0.0683365911245346,
      0.10684993118047714,
      -0.09408308565616608,
      0.08926204591989517,
      -0.11217544972896576,
      0.04531700164079666,
      0.013193446211516857,
      -0.041922274976968765,
      -0.0005367370904423296,
      0.0686761811375618,
      0.0497322678565979,
      -0.01588883250951767,
      -0.06258868426084518,
      0.032466888427734375,
      0.09695586562156677,
      -0.05710525065660477,
      -0.08592671155929565,
      0.10109918564558029,
      0.10452384501695633,
      0.0125427832826972,
      -0.05373942479491234,
      -0.09841574728488922,
      -0.11249615252017975,
      0.02734905481338501,
      -0.040621645748615265,
      -0.12470156699419022
    ],
    [
      -0.05205149948596954,
      -0.048998139798641205,
      0.09438563138246536,
      -0.07347853481769562,
      -0.07038907706737518,
      0.04713667556643486,
      -0.11466085910797119,
      -0.07627487182617188,
      0.06807857751846313,
      -0.05901889503002167,
      0.05849340558052063,
      -0.11942089349031448,
      0.10791395604610443,
      0.014908745884895325,
      0.009648025035858154,
      -0.05934515222907066,
      -0.1456526219844818,
      0.025246674194931984,
      -0.014248669147491455,
      0.002276897430419922,
      -0.07842795550823212,
      -0.04458608478307724,
      0.05960001051425934,
      -0.07686887681484222,
      -0.10140770673751831,
      -0.12111732363700867,
      -0.12701794505119324,
      0.014153486117720604,
      0.09227651357650757,
      -0.07052071392536163,
      -0.10817324370145798,
      0.08633854985237122,
      -0.020455364137887955,
      -0.07104193419218063,
      0.028132310137152672,
      -0.0861569494009018,
      0.0781203880906105,
      0.07724647969007492,
      -0.002713248133659363,
      -0.08261521905660629,
      0.06486895680427551,
      0.03719133138656616,
      0.023015258833765984,
      0.018173469230532646,
      -0.06124305725097656,
      -0.008834287524223328,
      0.06658421456813812,
      -0.09990249574184418,
      0.011793434619903564,
      -0.11888524889945984,
      0.07434803247451782,
      -0.031199440360069275,
      -0.09670737385749817,
      0.09859110414981842,
      0.1248348206281662,
      -0.07594180107116699,
      0.07731255888938904,
      -0.10343002527952194,
      0.11417646706104279,
      0.05281006172299385,
      -0.06617648899555206,
      -0.07574760913848877,
      0.12310583144426346,
      -0.005989656783640385
    ],
    [
      -0.024643465876579285,
      -0.0421028770506382,
      0.09143054485321045,
      0.035378143191337585,
      -0.001299237716011703,
      0.015530839562416077,
      -0.055808428674936295,
      0.05107685923576355,
      -0.08258604258298874,
      0.033944472670555115,
      -0.048626676201820374,
      -0.12519071996212006,
      0.032146379351615906,
      -0.007524967193603516,
      -0.003200247883796692,
      -0.007272691465914249,
      0.05654644966125488,
      0.11655567586421967,
      0.11921550333499908,
      -0.10006016492843628,
      -0.024760320782661438,
      0.031704410910606384,
      0.022528797388076782,
      0.04371638596057892,
      0.0466313362121582,
      0.12438049912452698,
      0.05463440716266632,
      -0.03828117996454239,
      0.08296827971935272,
      -0.024697884917259216,
      -0.10990390181541443,
      -0.1126338392496109,
      -0.07668156176805496,
      -0.12379562854766846,
      -0.06418856978416443,
      -0.00754411518573761,
      0.07310144603252411,
      0.00036147853825241327,
      0.007596865296363831,
      0.0574503093957901,
      -0.04998798668384552,
      -0.1057538166642189,
      -0.04237763211131096,
      -0.12032461166381836,
      -0.0024300655350089073,
      0.0924525111913681,
      -0.09195812046527863,
      0.07475776970386505,
      0.11876969039440155,
      0.10486941039562225,
      -0.06979482620954514,
      -0.02688699960708618,
      -0.09451344609260559,
      -0.09794456511735916,
      0.10378903150558472,
      0.09918543696403503,
      0.07547633349895477,
      -0.10198889672756195,
      -0.0236949659883976,
      0.0904160887002945,
      0.06794993579387665,
      -0.01076443586498499,
      0.10884270071983337,
      -0.08417007327079773
    ],
    [
      -0.0988084077835083,
      -0.06854820251464844,
      0.08530178666114807,
      -0.09365677833557129,
      -0.013756230473518372,
      0.000800594687461853,
      -0.09983688592910767,
      -0.03281243145465851,
      -0.09583115577697754,
      0.010828182101249695,
      0.008725285530090332,
      -0.009996160864830017,
      -0.005774825811386108,
      0.11197355389595032,
      0.11322085559368134,
      -0.03176528215408325,
      -0.08338218927383423,
      0.07188683748245239,
      -0.048853710293769836,
      0.09706152975559235,
      0.04921647906303406,
      0.006544157862663269,
      0.1129799336194992,
      0.012300446629524231,
      -0.00943446159362793,
      0.08145715296268463,
      -0.047316774725914,
      -0.009156182408332825,
      0.00522206723690033,
      -0.013031423091888428,
      -0.04470491409301758,
      0.02214229106903076,
      0.1178663969039917,
      0.08701443672180176,
      -0.07320326566696167,
      0.12067529559135437,
      -0.0529121458530426,
      0.016881465911865234,
      -0.10954330861568451,
      -0.12085014581680298,
      -0.05268953740596771,
      -0.04058729112148285,
      0.017782360315322876,
      -0.03680531680583954,
      -0.040863409638404846,
      -0.09574596583843231,
      0.04791848361492157,
      0.06688567996025085,
      -0.023476511240005493,
      -0.10162973403930664,
      0.10199214518070221,
      0.056782156229019165,
      -0.10631433129310608,
      0.03825938701629639,
      0.04479795694351196,
      -0.07630565762519836,
      -0.04583197832107544,
      -0.04858359694480896,
      -0.10572189092636108,
      0.06032669544219971,
      0.11915594339370728,
      0.0085848867893219,
      -0.04597601294517517,
      0.06717093288898468
    ],
    [
      -0.09352743625640869,
      -0.11945100128650665,
      0.0865039974451065,
      -0.016526341438293457,
      -0.09655945003032684,
      -0.032087624073028564,
      0.02914750576019287,
      -0.10633642971515656,
      0.08395186066627502,
      -0.10715833306312561,
      -0.10719612240791321,
      0.06211552023887634,
      -0.10413551330566406,
      0.07909920811653137,
      -0.034621283411979675,
      0.021240606904029846,
      0.027786627411842346,
      -0.027844980359077454,
      -0.06657157838344574,
      -0.10581661760807037,
      -0.07372108101844788,
      0.09700824320316315,
      0.04144179821014404,
      -0.09801046550273895,
      -0.11953680217266083,
      -0.11722096800804138,
      -0.04255762696266174,
      0.02373664081096649,
      0.025303915143013,
      -0.04623642563819885,
      -0.0023212432861328125,
      -0.10059612989425659,
      -0.004319891333580017,
      -0.042765915393829346,
      -0.08094906806945801,
      -0.043466925621032715,
      -0.08437325060367584,
      0.08764906227588654,
      -0.08345116674900055,
      0.07984814047813416,
      0.023895129561424255,
      -0.09690035879611969,
      -0.045135825872421265,
      -0.02719394862651825,
      0.06097540259361267,
      0.07684816420078278,
      0.09704229235649109,
      -0.11199897527694702,
      0.03441174328327179,
      0.06165507435798645,
      0.006466567516326904,
      0.1243075430393219,
      -0.06105969846248627,
      -0.007040485739707947,
      -0.05875694751739502,
      -0.0868317037820816,
      -0.10656657814979553,
      0.11664055287837982,
      -0.005755916237831116,
      -0.002802029252052307,
      0.11099375784397125,
      -0.06966722011566162,
      0.06331530213356018,
      -0.06643271446228027
    ],
    [
      -0.07550808042287827,
      0.06368904560804367,
      -0.07944408059120178,
      0.0010119378566741943,
      0.11453618854284286,
      0.05466294661164284,
      0.2500149607658386,
      0.20406480133533478,
      0.12834671139717102,
      0.22402243316173553,
      0.17224714159965515,
      0.2757226824760437,
      0.2474871277809143,
      -0.0912185087800026,
      0.05198250710964203,
      0.1647435873746872,
      0.1769355833530426,
      0.034901414066553116,
      0.04326687753200531,
      0.012118694372475147,
      0.046212173998355865,
      0.01054320577532053,
      -0.022163376212120056,
      0.040454402565956116,
      -0.10885483026504517,
      -0.07672879844903946,
      0.16311433911323547,
      0.19464334845542908,
      0.0742015689611435,
      0.18783538043498993,
      0.07645037025213242,
      0.09339994937181473,
      0.08599551022052765,
      0.11529896408319473,
      0.01326458714902401,
      0.11041146516799927,
      0.21247930824756622,
      0.15152651071548462,
      0.12615303695201874,
      0.1298595666885376,
      0.16761256754398346,
      0.14087995886802673,
      0.14881625771522522,
      0.05464640259742737,
      0.22666123509407043,
      -0.09410790354013443,
      0.1293174922466278,
      -0.04225551709532738,
      0.16800464689731598,
      0.05158824846148491,
      0.12073387950658798,
      0.039546359330415726,
      0.17291858792304993,
      0.09543795138597488,
      0.04123838245868683,
      0.039452891796827316,
      0.05720042064785957,
      0.20310120284557343,
      0.18420393764972687,
      0.030726531520485878,
      0.07002364099025726,
      0.10036437213420868,
      -0.10066702216863632,
      0.09885653108358383
    ],
    [
      -0.11173346638679504,
      -0.03517031669616699,
      0.016160666942596436,
      -0.11249041557312012,
      -0.07532188296318054,
      -0.07301481068134308,
      -0.07073824107646942,
      -0.09353853762149811,
      0.12041802704334259,
      -0.11418983340263367,
      -0.08636118471622467,
      -0.008367374539375305,
      -0.1097612977027893,
      0.05689409375190735,
      -0.10549639165401459,
      -0.0002458613889757544,
      0.03300496190786362,
      0.11822715401649475,
      0.09308955073356628,
      -0.007774099707603455,
      -0.018129868432879448,
      0.04700549319386482,
      0.10117313265800476,
      -0.03773701190948486,
      -0.01501472294330597,
      -0.08472681045532227,
      -0.03443931043148041,
      -0.08317230641841888,
      0.0053618368692696095,
      0.0943872258067131,
      -0.03489336743950844,
      0.08297556638717651,
      0.06457659602165222,
      0.011838754639029503,
      -0.09747405350208282,
      0.0842210054397583,
      0.08034992218017578,
      0.017368344590067863,
      -0.08284570276737213,
      -0.09619937837123871,
      -0.07674065977334976,
      -0.046554844826459885,
      0.015423831529915333,
      0.09363392740488052,
      0.042464569211006165,
      0.09394076466560364,
      0.0891914814710617,
      0.10483349859714508,
      -0.01972663402557373,
      -0.08139732480049133,
      0.020909935235977173,
      0.10124453902244568,
      0.046861182898283005,
      0.07422534376382828,
      -0.07679623365402222,
      0.07566432654857635,
      0.05528345704078674,
      -0.11565209925174713,
      0.045701563358306885,
      -0.05634374916553497,
      0.03088599443435669,
      -0.11979087442159653,
      0.10617072880268097,
      -0.11144305765628815
    ],
    [
      -0.014031201601028442,
      -0.08414101600646973,
      -0.07083117961883545,
      0.10363508760929108,
      -0.05131620168685913,
      -0.06427405774593353,
      -5.893409252166748e-05,
      -0.01508280634880066,
      -0.07176204025745392,
      0.04340757429599762,
      -0.042946457862854004,
      -0.09911487996578217,
      -0.08317403495311737,
      -0.0994996726512909,
      -0.06317742168903351,
      0.061914294958114624,
      -0.09731081128120422,
      -0.1100388914346695,
      -0.027156248688697815,
      0.004209071397781372,
      -0.07381311058998108,
      0.035221755504608154,
      0.03463035821914673,
      -0.02772347629070282,
      0.10690969228744507,
      0.015052959322929382,
      -0.11996102333068848,
      -0.08933483064174652,
      -0.047741517424583435,
      -0.02759420871734619,
      -0.041590213775634766,
      -0.0045232027769088745,
      -0.08395330607891083,
      0.009030193090438843,
      -0.030600622296333313,
      0.0003029555082321167,
      -0.05047592520713806,
      0.07668007910251617,
      -0.022188469767570496,
      -0.034477174282073975,
      0.019415169954299927,
      -0.05868829786777496,
      -0.014297932386398315,
      -0.031071513891220093,
      0.11264312267303467,
      -0.008495867252349854,
      -0.10770867764949799,
      -0.08941194415092468,
      -0.033673763275146484,
      -0.088462695479393,
      -0.01658692955970764,
      -0.006952181458473206,
      -0.054173052310943604,
      -0.025251328945159912,
      0.03332071006298065,
      -0.019674792885780334,
      -0.023497924208641052,
      -0.004006519913673401,
      0.06645208597183228,
      -0.02089814841747284,
      -0.023607462644577026,
      -0.0022034049034118652,
      0.06481274962425232,
      -0.08891326189041138
    ],
    [
      0.004407334607094526,
      0.18716560304164886,
      -0.026170531287789345,
      0.052071332931518555,
      0.3231969475746155,
      -0.09306485205888748,
      0.33943524956703186,
      0.31935304403305054,
      0.2869778871536255,
      0.1401946246623993,
      0.22273048758506775,
      0.24629907310009003,
      0.3198535442352295,
      0.08944403380155563,
      -0.06794434785842896,
      0.15926839411258698,
      0.3231382966041565,
      0.2571938931941986,
      -0.008966103196144104,
      0.026889406144618988,
      0.2497681975364685,
      0.01302230916917324,
      0.05705980956554413,
      0.058758486062288284,
      0.05587138235569,
      -0.09232747554779053,
      0.259421169757843,
      0.21196772158145905,
      0.27128928899765015,
      0.16669178009033203,
      0.03334369882941246,
      -0.03345626965165138,
      0.13450250029563904,
      0.2338356226682663,
      -0.009979864582419395,
      0.17589902877807617,
      0.16677820682525635,
      0.2904973328113556,
      0.2750287652015686,
      0.17679114639759064,
      0.21531493961811066,
      0.2845248579978943,
      0.124992236495018,
      0.30877697467803955,
      0.1773611456155777,
      0.055343225598335266,
      0.014916228130459785,
      -0.12016844749450684,
      0.19035391509532928,
      -0.06772439926862717,
      0.26130932569503784,
      0.011306325905025005,
      0.08533212542533875,
      0.2713924050331116,
      0.01817360520362854,
      0.00436810590326786,
      0.08358632773160934,
      0.15177693963050842,
      0.17326174676418304,
      0.3416670858860016,
      0.0026308447122573853,
      0.27923765778541565,
      0.04108221083879471,
      0.279470831155777
    ],
    [
      -0.06514379382133484,
      0.11535114794969559,
      -0.060947783291339874,
      0.015124380588531494,
      0.09281563758850098,
      0.05439077690243721,
      0.18780167400836945,
      0.1679043024778366,
      0.2581416070461273,
      0.12391043454408646,
      0.22783520817756653,
      0.23041725158691406,
      0.3027796447277069,
      0.09291007369756699,
      0.033248960971832275,
      0.18916936218738556,
      0.24228952825069427,
      0.27287623286247253,
      -0.12009428441524506,
      -0.04676179960370064,
      0.2646505534648895,
      -0.04369451850652695,
      0.008195415139198303,
      -0.09981080889701843,
      -0.07662107050418854,
      -0.1311371922492981,
      0.11483188718557358,
      0.1508650928735733,
      0.2633070945739746,
      0.23581062257289886,
      -0.10115811973810196,
      -0.10501664131879807,
      0.261079341173172,
      0.10079413652420044,
      0.11949732154607773,
      0.17264622449874878,
      0.1135411337018013,
      0.2064485102891922,
      0.07722131162881851,
      0.19672343134880066,
      0.2935944199562073,
      0.2945404052734375,
      0.13337360322475433,
      0.22436504065990448,
      0.3011353313922882,
      0.0634859949350357,
      0.058617640286684036,
      -0.025865742936730385,
      0.2130398154258728,
      -0.04702984169125557,
      0.2949541509151459,
      -0.11293341219425201,
      0.25418245792388916,
      0.1759108304977417,
      0.025397643446922302,
      0.016903672367334366,
      -0.09401720762252808,
      0.2760268449783325,
      0.17903278768062592,
      0.1756046861410141,
      -0.030772879719734192,
      0.2677605152130127,
      -0.019963109865784645,
      0.12206313759088516
    ],
    [
      -0.0256759375333786,
      -0.013186498545110226,
      -0.02001827023923397,
      -0.003774508833885193,
      -0.08316563814878464,
      0.08230142295360565,
      -0.08296631276607513,
      0.012939514592289925,
      -0.06484530121088028,
      -0.03374636918306351,
      0.058942317962646484,
      0.114274762570858,
      -0.01743415556848049,
      0.105622798204422,
      -0.01158258318901062,
      -0.030197106301784515,
      0.10816625505685806,
      -0.05630912631750107,
      -0.10917328298091888,
      -0.07261249423027039,
      -0.11982408165931702,
      0.08197914063930511,
      0.10481619834899902,
      0.05894414708018303,
      0.0008274316787719727,
      0.10963952541351318,
      -0.05793292075395584,
      0.0069669149816036224,
      0.10961534827947617,
      0.1136351078748703,
      -0.09052233397960663,
      0.10196664184331894,
      -0.09556523710489273,
      0.013784389942884445,
      0.016250714659690857,
      -0.10688567161560059,
      0.10380787402391434,
      -0.011376905255019665,
      -0.014795336872339249,
      -0.011900308541953564,
      -0.0743737667798996,
      -0.09437153488397598,
      0.016948038712143898,
      -0.08751439303159714,
      0.019977854564785957,
      0.020250439643859863,
      0.07943803071975708,
      -0.1154964417219162,
      0.09392720460891724,
      -0.0139312744140625,
      -0.047663938254117966,
      -0.06297650933265686,
      0.060468196868896484,
      -0.023177295923233032,
      0.02710399031639099,
      -0.03752078115940094,
      0.03573872148990631,
      0.030936257913708687,
      0.06707035005092621,
      -0.10585799068212509,
      -0.0756978690624237,
      -0.1290908306837082,
      -0.09019607305526733,
      0.09457291662693024
    ],
    [
      0.05908927321434021,
      0.12107186019420624,
      -0.06261925399303436,
      -0.013591229915618896,
      0.05642335116863251,
      0.0673990398645401,
      -0.06118221580982208,
      -0.06433822214603424,
      -0.066911980509758,
      -0.12265224754810333,
      -0.017812371253967285,
      0.07439984381198883,
      -0.09059323370456696,
      0.00813157856464386,
      -0.1053687334060669,
      0.00920085608959198,
      0.08395522832870483,
      0.025765493512153625,
      -0.10069900751113892,
      0.1181795597076416,
      -0.084877148270607,
      0.019045233726501465,
      0.11042703688144684,
      -0.0567573606967926,
      0.001894637942314148,
      0.0863337516784668,
      -0.09574505686759949,
      0.1237766444683075,
      0.07505998015403748,
      -0.056106001138687134,
      0.07459048926830292,
      -0.009041115641593933,
      0.030456721782684326,
      -0.014161571860313416,
      -0.0964130312204361,
      -0.11429616808891296,
      0.11112017929553986,
      0.011695727705955505,
      -0.11844594776630402,
      0.019005045294761658,
      0.11810934543609619,
      -0.11747460067272186,
      0.011159494519233704,
      0.0394187867641449,
      -0.030763015151023865,
      0.12497642636299133,
      0.07636390626430511,
      0.12388201057910919,
      -0.09957744181156158,
      -0.04585710167884827,
      -0.08758178353309631,
      -0.02105550467967987,
      0.007788509130477905,
      -0.01874236762523651,
      0.1062992513179779,
      -0.012064695358276367,
      0.07412123680114746,
      0.03835223615169525,
      0.10265453159809113,
      0.05987958610057831,
      0.09362675249576569,
      -0.113401859998703,
      -0.034123972058296204,
      -0.10152080655097961
    ],
    [
      -0.0786517858505249,
      -0.09485921263694763,
      0.02104787528514862,
      0.11059233546257019,
      0.00813913345336914,
      0.010921552777290344,
      -0.1201590746641159,
      0.08861728012561798,
      0.1020502895116806,
      -0.01966075599193573,
      0.011773362755775452,
      0.00816693902015686,
      -0.009263485670089722,
      0.01942029595375061,
      -0.051271721720695496,
      -0.12397205829620361,
      -0.07690857350826263,
      -0.008793741464614868,
      -0.11050763726234436,
      0.11415441334247589,
      0.03930597007274628,
      -0.08845528960227966,
      0.003010794520378113,
      -0.11029072105884552,
      -0.11269423365592957,
      -0.06435917317867279,
      -0.023937374353408813,
      0.009990781545639038,
      0.06354562938213348,
      -0.11983680725097656,
      0.07698573172092438,
      0.10626275837421417,
      -0.004055142402648926,
      0.044959887862205505,
      0.038853615522384644,
      -0.061665818095207214,
      -0.06038674712181091,
      0.07306958734989166,
      -0.10048063099384308,
      -0.056578993797302246,
      -0.11925098299980164,
      -0.025493651628494263,
      0.03430548310279846,
      -0.10129164159297943,
      -0.11223247647285461,
      -0.04770030081272125,
      -0.03942984342575073,
      -0.07937203347682953,
      -0.07419072091579437,
      0.049488410353660583,
      0.011474385857582092,
      -0.0176268070936203,
      -0.04599939286708832,
      -0.02298596501350403,
      -0.011742889881134033,
      -0.06280232965946198,
      0.05710352957248688,
      -0.08435551822185516,
      0.021521568298339844,
      -0.08163769543170929,
      -0.11216282844543457,
      0.011893153190612793,
      -0.08482614159584045,
      0.00705370306968689
    ],
    [
      0.05817922577261925,
      -0.12703606486320496,
      0.05931758135557175,
      0.06509967148303986,
      -0.10315046459436417,
      0.09515051543712616,
      -0.0393446683883667,
      0.03328075632452965,
      0.06672599911689758,
      -0.12685228884220123,
      -0.04711943492293358,
      -0.05606270954012871,
      0.10322453081607819,
      0.06276659667491913,
      -0.0007602572441101074,
      0.08489625155925751,
      0.12961384654045105,
      0.02073483169078827,
      -0.07301284372806549,
      0.09366367757320404,
      -0.006191404070705175,
      -0.005443941336125135,
      -0.07244421541690826,
      -0.08316083997488022,
      0.08780045807361603,
      -0.06872362643480301,
      -0.03620430454611778,
      0.07731807231903076,
      -0.010259776376187801,
      -0.02790389023721218,
      0.10957971960306168,
      -0.0886678472161293,
      -0.03246549516916275,
      -0.11675078421831131,
      -0.01508651115000248,
      -0.06284935772418976,
      0.030183224007487297,
      0.06134846806526184,
      0.05003741383552551,
      0.036204993724823,
      -0.04232266545295715,
      0.002886062255129218,
      -0.0970025435090065,
      0.1088397428393364,
      -0.06762365996837616,
      -0.06965445727109909,
      -0.10009180009365082,
      -0.02936246246099472,
      -0.1028209999203682,
      -0.014984115958213806,
      -0.11724372208118439,
      -0.11906398832798004,
      0.022494081407785416,
      -0.10822880268096924,
      -0.06195734441280365,
      -0.12549057602882385,
      0.038252633064985275,
      0.03387582674622536,
      0.046185627579689026,
      -0.09548056125640869,
      0.11187592148780823,
      0.04121270403265953,
      0.11651283502578735,
      -0.04312659800052643
    ],
    [
      -0.12279871851205826,
      0.2571316957473755,
      -0.11773410439491272,
      -0.061226069927215576,
      0.35145753622055054,
      -0.023856377229094505,
      0.18115389347076416,
      0.32985955476760864,
      0.1417703926563263,
      0.11075381934642792,
      0.3040471076965332,
      0.17351773381233215,
      0.19904568791389465,
      -0.001475561293773353,
      0.11121125519275665,
      0.332591712474823,
      0.2699030637741089,
      0.13155867159366608,
      0.041753560304641724,
      -0.015460837632417679,
      0.2273441106081009,
      0.10862525552511215,
      -0.08861707150936127,
      0.008703787811100483,
      0.10278956592082977,
      -0.02380337566137314,
      0.32822027802467346,
      0.3603423833847046,
      0.25957396626472473,
      0.30886250734329224,
      -0.032452087849378586,
      -0.019926907494664192,
      0.31194236874580383,
      0.20438514649868011,
      0.0057134442031383514,
      0.12636877596378326,
      0.2865257263183594,
      0.15051057934761047,
      0.059864819049835205,
      0.18830150365829468,
      0.35899728536605835,
      0.32436859607696533,
      0.2471923828125,
      0.22056593000888824,
      0.30123209953308105,
      0.10274460166692734,
      -0.07840098440647125,
      -0.004159973002970219,
      0.03881834074854851,
      0.006483532954007387,
      0.1748110055923462,
      0.04105951264500618,
      0.10712884366512299,
      0.25805166363716125,
      -0.055041342973709106,
      0.08467825502157211,
      -0.1247679740190506,
      0.2579463720321655,
      0.24684889614582062,
      0.30954501032829285,
      0.07097753882408142,
      0.16956955194473267,
      -0.0011240144958719611,
      0.21564732491970062
    ],
    [
      0.07716895639896393,
      -0.12341676652431488,
      -0.018496988341212273,
      -0.0883721262216568,
      0.07623608410358429,
      0.05990278720855713,
      0.08505688607692719,
      -0.07846429944038391,
      0.05306972190737724,
      -0.05735510215163231,
      -0.08444105833768845,
      -0.025075644254684448,
      0.060957781970500946,
      0.05798335373401642,
      0.06602691113948822,
      -0.0385306179523468,
      0.02995186112821102,
      0.05150022730231285,
      0.08596374094486237,
      0.010022357106208801,
      -0.007189144380390644,
      -0.005945843178778887,
      -0.10578131675720215,
      0.08527593314647675,
      -0.056453391909599304,
      -0.10431535542011261,
      0.02251272089779377,
      0.030819682404398918,
      -0.057428598403930664,
      -0.054071370512247086,
      -0.11635475605726242,
      -0.03140800818800926,
      0.041386425495147705,
      -0.020785368978977203,
      -0.03013131581246853,
      -0.10502589493989944,
      -0.1263449490070343,
      0.005452551878988743,
      -0.03326171636581421,
      0.0860198438167572,
      -0.10683733224868774,
      -0.010464351624250412,
      -0.08937658369541168,
      -0.039833005517721176,
      0.043343011289834976,
      0.057429928332567215,
      -0.005990496836602688,
      -0.04657641053199768,
      -0.011921103112399578,
      0.03181320056319237,
      -0.03502461686730385,
      0.06827986985445023,
      -0.0863179937005043,
      -0.06886843591928482,
      0.05437764525413513,
      0.058591991662979126,
      -0.00954398512840271,
      -0.03812865540385246,
      0.08890965580940247,
      0.049922842532396317,
      0.1232147067785263,
      -0.060183536261320114,
      -0.11990083754062653,
      0.09830810874700546
    ],
    [
      0.04391986131668091,
      0.11987445503473282,
      0.027785228565335274,
      -0.021753355860710144,
      0.22825980186462402,
      -0.001992602366954088,
      0.12998513877391815,
      0.1409052461385727,
      0.1602240949869156,
      0.31686991453170776,
      0.33708035945892334,
      0.15281030535697937,
      0.3357592523097992,
      -0.019535329192876816,
      0.10567188262939453,
      0.23536032438278198,
      0.32864463329315186,
      0.3317388892173767,
      -0.10009343922138214,
      0.02688094787299633,
      0.2667011618614197,
      -0.0872640460729599,
      0.025089383125305176,
      0.1201632097363472,
      -0.018545225262641907,
      0.13181352615356445,
      0.32148125767707825,
      0.17525643110275269,
      0.1603795439004898,
      0.23832473158836365,
      -0.13579832017421722,
      -0.012416473589837551,
      0.2516198456287384,
      0.171308696269989,
      0.0025043683126568794,
      0.23210269212722778,
      0.3320491909980774,
      0.21122600138187408,
      0.18198993802070618,
      0.21334320306777954,
      0.2546441853046417,
      0.17403258383274078,
      0.32331669330596924,
      0.17210787534713745,
      0.11121156811714172,
      0.060169823467731476,
      -0.05043695494532585,
      0.017422867938876152,
      0.15024277567863464,
      0.16984640061855316,
      0.19891919195652008,
      -0.060431208461523056,
      0.12570726871490479,
      0.19868203997612,
      0.020990297198295593,
      -0.14696751534938812,
      -0.14481382071971893,
      0.28760015964508057,
      0.21924515068531036,
      0.25484830141067505,
      -0.10312412679195404,
      0.32763421535491943,
      -0.10170354694128036,
      0.130054771900177
    ],
    [
      0.08977866172790527,
      -0.07509011775255203,
      -0.12429879605770111,
      -0.12337718904018402,
      0.06436017155647278,
      -0.0828525722026825,
      -0.10938583314418793,
      -0.10169956833124161,
      -0.10881111025810242,
      0.022190699353814125,
      0.029950503259897232,
      -0.11824795603752136,
      -0.09452889859676361,
      -0.06561623513698578,
      0.008268654346466064,
      0.060132719576358795,
      -0.06917746365070343,
      0.06647643446922302,
      0.09757235646247864,
      -0.06906123459339142,
      0.06165933236479759,
      0.08575340360403061,
      -0.04951940476894379,
      0.028009062632918358,
      -0.05142505466938019,
      -0.003062303876504302,
      0.07682248950004578,
      0.057185038924217224,
      0.0005759735940955579,
      -0.10886804759502411,
      0.1066650003194809,
      -0.06574638187885284,
      0.006880826782435179,
      0.10526851564645767,
      -0.02436666563153267,
      0.0487460158765316,
      0.05535948649048805,
      -0.11501612514257431,
      0.11962248384952545,
      0.08608639240264893,
      0.0005155396065674722,
      -0.12436937540769577,
      0.0020207695197314024,
      -0.04557942599058151,
      -0.03688979521393776,
      0.05610617995262146,
      0.019052520394325256,
      -0.007922545075416565,
      -0.02785423770546913,
      -0.010566629469394684,
      0.03737204894423485,
      0.01999513804912567,
      -0.11746765673160553,
      -0.04045054689049721,
      0.032781049609184265,
      0.0006344724097289145,
      0.011930120177567005,
      -0.10700803250074387,
      -0.07654274255037308,
      -0.08912032842636108,
      -0.035401955246925354,
      -0.11466677486896515,
      -0.08111898601055145,
      -0.005749551113694906
    ],
    [
      0.0871296375989914,
      0.04929368197917938,
      -0.02069738507270813,
      0.04477982223033905,
      -0.061227694153785706,
      -0.012768581509590149,
      -0.07857508957386017,
      -0.08454389870166779,
      -0.07342119514942169,
      0.019489049911499023,
      -0.04818446934223175,
      -0.009291261434555054,
      0.026996314525604248,
      -0.0873173326253891,
      -0.07368959486484528,
      0.03561854362487793,
      -0.11453737318515778,
      0.06315189599990845,
      -0.07982859015464783,
      0.10166989266872406,
      -0.020126551389694214,
      -0.02222117781639099,
      -0.06571286916732788,
      -0.12416291236877441,
      0.09167593717575073,
      -0.08382749557495117,
      -0.11171591281890869,
      0.014947637915611267,
      -0.01826915144920349,
      0.052092552185058594,
      -0.03139597177505493,
      0.03095252811908722,
      -0.034265488386154175,
      -0.0858207494020462,
      0.09084798395633698,
      0.09499169886112213,
      0.04181098937988281,
      0.09146973490715027,
      0.10280051827430725,
      0.059472501277923584,
      0.012211263179779053,
      -0.04418402910232544,
      0.02909451723098755,
      -0.057741329073905945,
      -0.04846577346324921,
      -0.09504435956478119,
      0.02143128216266632,
      -0.006084755063056946,
      0.053777143359184265,
      -0.03540599346160889,
      0.09626728296279907,
      0.042043447494506836,
      0.04495216906070709,
      0.10739868879318237,
      -0.06325040757656097,
      -0.07323282957077026,
      0.10563188791275024,
      -0.07765465974807739,
      -0.026407673954963684,
      0.03160105645656586,
      -0.10886669158935547,
      -0.05506771802902222,
      0.04296489059925079,
      0.06046886742115021
    ],
    [
      0.09417242556810379,
      0.26687926054000854,
      0.052172914147377014,
      -0.12444004416465759,
      0.26758477091789246,
      -0.06898945569992065,
      0.19666720926761627,
      0.2941085994243622,
      0.1375376582145691,
      0.20197314023971558,
      0.29069870710372925,
      0.20241385698318481,
      0.253415584564209,
      0.11648433655500412,
      0.06949453055858612,
      0.18126849830150604,
      0.2416505217552185,
      0.33128124475479126,
      0.08843499422073364,
      -0.07132293283939362,
      0.29092472791671753,
      0.0951833575963974,
      0.07871326804161072,
      -0.059345997869968414,
      -0.05773217976093292,
      -0.09605541080236435,
      0.2939393222332001,
      0.3294246792793274,
      0.23591028153896332,
      0.20159666240215302,
      -0.08968079835176468,
      0.06796523928642273,
      0.26584184169769287,
      0.2701577842235565,
      -0.024905813857913017,
      0.19199609756469727,
      0.11910682171583176,
      0.18940284848213196,
      0.23968850076198578,
      0.25192126631736755,
      0.20179328322410583,
      0.34154894948005676,
      0.19637848436832428,
      0.15539059042930603,
      0.1715976446866989,
      -0.07150577008724213,
      0.05129854008555412,
      -0.053119659423828125,
      0.23948535323143005,
      0.15367822349071503,
      0.2544309198856354,
      -0.001573563669808209,
      0.27982449531555176,
      0.08980432897806168,
      0.04331545531749725,
      0.07655708491802216,
      0.12237146496772766,
      0.13693983852863312,
      0.2428564876317978,
      0.12419421225786209,
      0.04422983527183533,
      0.2439127266407013,
      0.05537886172533035,
      0.2653639018535614
    ],
    [
      -0.09909896552562714,
      0.002567574381828308,
      -0.08287526667118073,
      -0.051234692335128784,
      -0.12171915173530579,
      -0.0974932610988617,
      -0.015266254544258118,
      0.013930439949035645,
      -0.07121141254901886,
      0.048510849475860596,
      -0.0359506756067276,
      -0.11559151113033295,
      -0.04430270195007324,
      0.09830102324485779,
      0.022944480180740356,
      -0.10778430104255676,
      -0.022459805011749268,
      0.03684838116168976,
      0.08081665635108948,
      -0.016317203640937805,
      0.015876471996307373,
      -0.026874035596847534,
      -0.11641965806484222,
      -0.120587557554245,
      0.0562678724527359,
      0.10282407701015472,
      -0.08359991014003754,
      -0.041120320558547974,
      -0.008234754204750061,
      -0.06277991831302643,
      0.07577522099018097,
      0.09299786388874054,
      -0.027509242296218872,
      0.11156991124153137,
      -0.08117786049842834,
      -0.006182625889778137,
      -0.11966922879219055,
      0.1107868105173111,
      0.04235832393169403,
      0.022698089480400085,
      -0.061878085136413574,
      -0.031877756118774414,
      0.035177081823349,
      -0.03641141951084137,
      -0.03304453194141388,
      -0.09544232487678528,
      -0.0750480443239212,
      0.0915512889623642,
      -0.058981165289878845,
      -0.05035273730754852,
      0.11090952157974243,
      0.034082964062690735,
      0.02605070173740387,
      0.04804478585720062,
      0.05450727045536041,
      0.015900328755378723,
      -0.07709819078445435,
      -0.11101077497005463,
      -0.07304339110851288,
      0.009615123271942139,
      -0.1093825250864029,
      -0.02601630985736847,
      -0.09702040255069733,
      -0.04348088800907135
    ],
    [
      -0.0872069001197815,
      -0.0885903388261795,
      -0.06886033713817596,
      -0.07429268956184387,
      0.023331359028816223,
      0.05339039862155914,
      -0.1119852215051651,
      0.1048644632101059,
      -0.08418679237365723,
      0.07261547446250916,
      -0.09027555584907532,
      0.09442026913166046,
      -0.0038276314735412598,
      0.06381674110889435,
      0.09651724994182587,
      0.08062531054019928,
      0.01691858470439911,
      0.03412753343582153,
      -0.023690447211265564,
      0.05548219382762909,
      0.12021744251251221,
      0.06668169796466827,
      0.04471254348754883,
      0.03795747458934784,
      -0.061230599880218506,
      -0.10400550067424774,
      0.030034467577934265,
      -0.10963065922260284,
      -0.044393330812454224,
      -0.07511141896247864,
      -0.0979776531457901,
      0.06322427093982697,
      -0.0593578964471817,
      0.0907009094953537,
      -0.06129659712314606,
      -0.04466529190540314,
      -0.053597480058670044,
      0.018053993582725525,
      -0.1196763664484024,
      -0.040352776646614075,
      -0.017910152673721313,
      0.013722240924835205,
      -0.020782992243766785,
      -0.09923847019672394,
      0.00191517174243927,
      0.1235736608505249,
      -0.005819603800773621,
      0.07652056217193604,
      -0.10621710121631622,
      -0.07334034144878387,
      0.048053935170173645,
      0.0033106356859207153,
      -0.013816088438034058,
      -0.10437336564064026,
      -0.03657807409763336,
      0.035257622599601746,
      -0.07648982107639313,
      -0.06391243636608124,
      -0.061083123087882996,
      0.032833755016326904,
      0.05215562880039215,
      -0.018455997109413147,
      -0.11350604891777039,
      -0.03420209884643555
    ],
    [
      0.07590952515602112,
      0.0670548677444458,
      -0.055860839784145355,
      -0.09487083554267883,
      0.048014409840106964,
      0.1141761839389801,
      0.07580135017633438,
      0.010007459670305252,
      -0.08935640752315521,
      0.03181224688887596,
      0.08027807623147964,
      0.0030003192368894815,
      0.09624433517456055,
      -0.10418304800987244,
      -0.029091447591781616,
      -0.14447376132011414,
      0.06086207181215286,
      -0.09391457587480545,
      -0.05574044585227966,
      0.08210102468729019,
      -0.05860819295048714,
      -0.003971966449171305,
      -0.12330175936222076,
      0.07320262491703033,
      -0.06404478847980499,
      -0.08326713740825653,
      -0.05273101106286049,
      -0.0333477146923542,
      -0.13953173160552979,
      0.09660228341817856,
      -0.01755761355161667,
      -0.11761404573917389,
      0.07535422593355179,
      -0.13030923902988434,
      0.10974331200122833,
      -0.014235232025384903,
      0.02766905166208744,
      -0.004548046737909317,
      -0.0672646164894104,
      -0.09334808588027954,
      0.027774715796113014,
      0.03191704675555229,
      -0.03636454418301582,
      -0.021171733736991882,
      -0.02464909292757511,
      -0.0023728013038635254,
      -0.0531977117061615,
      -0.01745186746120453,
      -0.06870880722999573,
      -0.09888660907745361,
      0.01355120912194252,
      -0.09205867350101471,
      -0.016076192259788513,
      -0.13235627114772797,
      0.09233136475086212,
      -0.06099225580692291,
      0.08514577150344849,
      -0.03680094704031944,
      -0.01658168062567711,
      0.08479641377925873,
      -0.104363813996315,
      0.04154597967863083,
      0.054451245814561844,
      0.027490416541695595
    ],
    [
      -0.029288748279213905,
      0.2711193859577179,
      0.030565170571208,
      -0.07728253304958344,
      0.13296107947826385,
      -0.13072259724140167,
      0.25014546513557434,
      0.165456622838974,
      0.2824631631374359,
      0.12457676231861115,
      0.25299251079559326,
      0.31222134828567505,
      0.3242705762386322,
      -0.08233074098825455,
      -0.044021591544151306,
      0.3613957464694977,
      0.16916996240615845,
      0.22737331688404083,
      -0.00914771854877472,
      0.06745719909667969,
      0.3605279326438904,
      -0.07018782198429108,
      0.03403441607952118,
      -0.08453162014484406,
      -0.012159392237663269,
      0.02452949807047844,
      0.21171024441719055,
      0.16646987199783325,
      0.14901886880397797,
      0.3605403006076813,
      -0.055747728794813156,
      0.042934712022542953,
      0.2928585112094879,
      0.14615023136138916,
      0.07852364331483841,
      0.3002457618713379,
      0.2231629192829132,
      0.30284029245376587,
      0.23307916522026062,
      0.2773932218551636,
      0.3133164048194885,
      0.33503273129463196,
      0.23345142602920532,
      0.15051041543483734,
      0.35251331329345703,
      -0.11827211081981659,
      -0.0317237563431263,
      0.09002508223056793,
      0.20633703470230103,
      0.10439826548099518,
      0.2944716811180115,
      -0.02614019252359867,
      0.09487450867891312,
      0.2493969202041626,
      0.09053219854831696,
      0.09202507883310318,
      -0.06721539795398712,
      0.294878751039505,
      0.35958001017570496,
      0.34590330719947815,
      -0.06381502747535706,
      0.22397930920124054,
      -0.035932715982198715,
      0.14241738617420197
    ],
    [
      -0.11663609743118286,
      0.21111631393432617,
      -0.12580499053001404,
      -0.06231303513050079,
      0.28122401237487793,
      -0.12953397631645203,
      0.2697279453277588,
      0.18888846039772034,
      0.2654876410961151,
      0.25881487131118774,
      0.330346018075943,
      0.31219881772994995,
      0.20494630932807922,
      0.09866711497306824,
      -0.06142692267894745,
      0.2779316306114197,
      0.3255610167980194,
      0.21628516912460327,
      -0.03630031645298004,
      0.0702609270811081,
      0.2936723530292511,
      -0.07395039498806,
      0.010724246501922607,
      0.03461725637316704,
      -0.06695161759853363,
      0.06636790931224823,
      0.24163587391376495,
      0.21419163048267365,
      0.1276479959487915,
      0.16476714611053467,
      0.08347975462675095,
      0.08120093494653702,
      0.1787736862897873,
      0.21725985407829285,
      0.03332066535949707,
      0.26320239901542664,
      0.30110207200050354,
      0.20149849355220795,
      0.12820138037204742,
      0.3283773958683014,
      0.19889597594738007,
      0.3581105172634125,
      0.1424615979194641,
      0.21655160188674927,
      0.3071713447570801,
      0.03813524544239044,
      0.04519328102469444,
      -0.12938600778579712,
      0.012993630021810532,
      -0.06323451548814774,
      0.30703502893447876,
      0.01404957938939333,
      0.2660115361213684,
      0.1641337275505066,
      0.05879463255405426,
      -0.011213138699531555,
      -0.10107988864183426,
      0.34010231494903564,
      0.3241066336631775,
      0.15485472977161407,
      0.01872044801712036,
      0.2702386677265167,
      -0.07400926202535629,
      0.24468804895877838
    ],
    [
      -0.05214864760637283,
      0.25264182686805725,
      -0.05519210919737816,
      0.03657141327857971,
      0.22423003613948822,
      -0.050386130809783936,
      0.28886860609054565,
      0.3567768931388855,
      0.29928162693977356,
      0.15347716212272644,
      0.17713719606399536,
      0.2752571403980255,
      0.16631338000297546,
      0.13232064247131348,
      0.05816984176635742,
      0.25430816411972046,
      0.36457502841949463,
      0.34545642137527466,
      -0.06911042332649231,
      -0.03983889892697334,
      0.3653488755226135,
      0.046786095947027206,
      0.10033118724822998,
      0.05025353282690048,
      -0.08427812159061432,
      0.10305465757846832,
      0.33643972873687744,
      0.2382679581642151,
      0.15476658940315247,
      0.22507266700267792,
      0.04424002021551132,
      0.058669619262218475,
      0.21055558323860168,
      0.3068995475769043,
      0.031744301319122314,
      0.23600135743618011,
      0.26453399658203125,
      0.37486380338668823,
      0.24592716991901398,
      0.33065032958984375,
      0.14245541393756866,
      0.22374019026756287,
      0.27545785903930664,
      0.3460681438446045,
      0.17061877250671387,
      -0.06885743141174316,
      -0.05559815466403961,
      0.06538265198469162,
      0.07158302515745163,
      -0.03763987869024277,
      0.3383976221084595,
      0.12875370681285858,
      0.14273646473884583,
      0.2773492932319641,
      -0.008829370141029358,
      -0.12884041666984558,
      0.08267538249492645,
      0.2552194893360138,
      0.16395796835422516,
      0.1704588234424591,
      0.07866163551807404,
      0.2003989964723587,
      0.06906934827566147,
      0.3708787262439728
    ],
    [
      0.09743848443031311,
      0.07720687985420227,
      0.03167128562927246,
      -0.09429055452346802,
      0.020609304308891296,
      -0.05440334975719452,
      -0.04603540897369385,
      -0.11948491632938385,
      0.10584814846515656,
      0.08680392801761627,
      0.015060320496559143,
      0.09037692844867706,
      -0.024994030594825745,
      -0.010292783379554749,
      0.019519418478012085,
      -0.09007054567337036,
      0.06037260591983795,
      0.016968443989753723,
      -0.09172636270523071,
      0.06041261553764343,
      -0.09632447361946106,
      -0.02797861397266388,
      0.10689893364906311,
      -0.05670534074306488,
      0.03183259069919586,
      0.05609121918678284,
      0.01741980016231537,
      0.05478590726852417,
      -0.018504053354263306,
      0.004399731755256653,
      0.10400427877902985,
      0.02798566222190857,
      0.10937489569187164,
      -0.07216688990592957,
      0.027267634868621826,
      0.08083094656467438,
      -0.09862516820430756,
      0.025010064244270325,
      -0.015554070472717285,
      -0.05123911798000336,
      -0.003030344843864441,
      -0.07970993220806122,
      -0.04561793804168701,
      0.05203475058078766,
      -0.034931480884552,
      0.08320434391498566,
      -0.09712214767932892,
      -0.04287649691104889,
      -0.024436146020889282,
      -0.03886902332305908,
      -0.019639059901237488,
      -0.09129120409488678,
      0.08041545748710632,
      -0.11218135058879852,
      -0.030060604214668274,
      -0.12302598357200623,
      0.05063764750957489,
      -0.06576283276081085,
      -0.040828317403793335,
      -0.04244771599769592,
      0.11849072575569153,
      0.1232522577047348,
      -0.0354466587305069,
      -0.04920439422130585
    ],
    [
      0.08387599140405655,
      0.1400870382785797,
      0.0439302884042263,
      -0.04385720193386078,
      0.2401382178068161,
      -0.09748542308807373,
      0.18484635651111603,
      0.24211247265338898,
      0.10928668826818466,
      0.29043641686439514,
      0.2372792661190033,
      0.15039974451065063,
      0.2170787900686264,
      0.09652318805456161,
      -0.08195847272872925,
      0.14457499980926514,
      0.15946045517921448,
      0.2811466157436371,
      -0.012246519327163696,
      -0.13630825281143188,
      0.19200187921524048,
      -0.1098199263215065,
      -0.03530842065811157,
      0.09513093531131744,
      -0.11808539927005768,
      -0.11044501513242722,
      0.24770605564117432,
      0.23993642628192902,
      0.20777831971645355,
      0.1860855221748352,
      0.10806700587272644,
      0.03960934653878212,
      0.25545939803123474,
      0.28140172362327576,
      0.01964513026177883,
      0.15187865495681763,
      0.23521247506141663,
      0.18950293958187103,
      0.09174366295337677,
      0.19722819328308105,
      0.2719826400279999,
      0.1732509434223175,
      0.32628315687179565,
      0.26328244805336,
      0.1973908543586731,
      -0.12261256575584412,
      0.10743855684995651,
      -0.10410431027412415,
      0.09065449237823486,
      0.11872243136167526,
      0.3189440667629242,
      0.039902497082948685,
      0.11521435528993607,
      0.2386358082294464,
      -0.041548192501068115,
      0.06270904839038849,
      0.06002501770853996,
      0.2938167452812195,
      0.29205846786499023,
      0.3008148670196533,
      0.1144799292087555,
      0.3671846091747284,
      -0.11150521039962769,
      0.14522548019886017
    ],
    [
      0.0737033262848854,
      0.08207394182682037,
      -0.06867388635873795,
      0.041066139936447144,
      0.04268154129385948,
      0.04926246777176857,
      -0.09221798926591873,
      0.06923080235719681,
      0.05000687763094902,
      0.016443081200122833,
      -0.10803589969873428,
      -0.05336499586701393,
      0.007061207666993141,
      0.1113303005695343,
      0.11235101521015167,
      -0.0292160976678133,
      -0.12440017610788345,
      -0.06416040658950806,
      0.10079112648963928,
      -0.09873728454113007,
      -0.057333242148160934,
      0.08797004818916321,
      0.024169981479644775,
      -0.03357292711734772,
      -0.10567130148410797,
      0.02600896917283535,
      0.028624365106225014,
      0.1010485291481018,
      -0.12806890904903412,
      -0.010841617360711098,
      -0.11447900533676147,
      -0.10331086814403534,
      0.07975969463586807,
      0.016376588493585587,
      0.04294036701321602,
      -0.03003545291721821,
      -0.11092329770326614,
      -0.1327645480632782,
      0.019235774874687195,
      0.09949547052383423,
      0.06413570046424866,
      -0.04852316528558731,
      0.07955875247716904,
      -0.1382514387369156,
      -0.08085737377405167,
      -0.10328689217567444,
      -0.06594240665435791,
      0.1028059795498848,
      -0.09577124565839767,
      0.044085320085287094,
      -0.04759650677442551,
      -0.08143048733472824,
      0.09573692828416824,
      0.08248525112867355,
      0.08833980560302734,
      0.06251131743192673,
      0.03350795805454254,
      -0.1353331208229065,
      0.03609403967857361,
      -0.05659269541501999,
      0.12431176006793976,
      0.053027085959911346,
      0.04307231679558754,
      -0.0288731437176466
    ],
    [
      -0.045033082365989685,
      0.005085289478302002,
      0.021443024277687073,
      0.11195060610771179,
      0.011149212718009949,
      0.10274386405944824,
      0.01882101595401764,
      -0.06038382649421692,
      0.006460174918174744,
      0.06544016301631927,
      0.03739064931869507,
      0.0036133378744125366,
      -0.12445972859859467,
      0.07248997688293457,
      0.07892939448356628,
      0.04365213215351105,
      0.06405216455459595,
      0.004568427801132202,
      -0.1112145334482193,
      0.08242566883563995,
      -0.08462238311767578,
      0.10259421169757843,
      -0.053190991282463074,
      -0.09885278344154358,
      -0.07152329385280609,
      -0.02564235031604767,
      -0.01570466160774231,
      0.06780438125133514,
      0.028352677822113037,
      0.09141921997070312,
      0.028003767132759094,
      0.12084725499153137,
      -0.08432632684707642,
      -0.030003651976585388,
      -0.0890783965587616,
      0.04772089421749115,
      -0.09103649854660034,
      -0.017190828919410706,
      0.011865302920341492,
      -0.064525306224823,
      -0.08710207045078278,
      0.05671754479408264,
      -0.048241302371025085,
      0.015544697642326355,
      -0.009486913681030273,
      0.10129092633724213,
      0.12243244051933289,
      -0.06356029212474823,
      -0.025487497448921204,
      -0.1005416214466095,
      -0.10980954766273499,
      -0.03967314958572388,
      -0.1249925047159195,
      0.10998454689979553,
      0.04739987850189209,
      0.07377147674560547,
      -0.11510998010635376,
      -0.00850127637386322,
      0.027903661131858826,
      0.01639638841152191,
      0.004262596368789673,
      0.01693505048751831,
      -0.0344012975692749,
      -0.09504054486751556
    ],
    [
      0.10539311170578003,
      0.08147580176591873,
      0.047041140496730804,
      -0.11173050105571747,
      -0.018267689272761345,
      -0.023472685366868973,
      -0.1331625133752823,
      -0.005061997100710869,
      -0.03254589065909386,
      0.03847115859389305,
      -0.11977721750736237,
      -0.09620892256498337,
      0.025950143113732338,
      0.08669115602970123,
      0.05400897562503815,
      0.01967993751168251,
      0.07087567448616028,
      0.030098900198936462,
      0.11145927011966705,
      0.038223519921302795,
      -0.08443998545408249,
      0.001924755866639316,
      0.031555771827697754,
      0.09716735780239105,
      -0.009618982672691345,
      -0.07216479629278183,
      0.019382208585739136,
      -0.09868079423904419,
      -0.11872076988220215,
      0.029352162033319473,
      0.017622927203774452,
      -0.026612183079123497,
      -0.08676911890506744,
      0.05120353400707245,
      -0.06400129199028015,
      -0.011319627985358238,
      -0.052889496088027954,
      -0.04928121715784073,
      0.029984310269355774,
      0.10320712625980377,
      0.11041023582220078,
      -0.0627811849117279,
      -0.04305579885840416,
      0.03184596821665764,
      -0.018043965101242065,
      0.06917595118284225,
      0.10683216154575348,
      -0.05326727777719498,
      -0.07767925411462784,
      0.0810365155339241,
      0.08878776431083679,
      0.11594697833061218,
      0.0961151197552681,
      -0.05838215351104736,
      -0.04427953064441681,
      0.10054943710565567,
      0.12776106595993042,
      -0.10245881229639053,
      0.07241383194923401,
      0.0768478661775589,
      0.12420161068439484,
      -0.09142833948135376,
      0.01435915008187294,
      -0.07012201845645905
    ],
    [
      0.10957992076873779,
      0.07867506891489029,
      0.08292815834283829,
      0.03417687118053436,
      0.1016894057393074,
      -0.12653431296348572,
      0.014766644686460495,
      0.09939907491207123,
      -0.09771931916475296,
      -0.02606809325516224,
      0.10342346876859665,
      0.05520700290799141,
      -0.07016312330961227,
      0.09462474286556244,
      -0.021541982889175415,
      -0.0950583964586258,
      0.08121538907289505,
      -0.07217580825090408,
      -0.05232501029968262,
      -0.06020441651344299,
